<?xml version="1.0"?>
<opencv_storage>
<cascade>
  <stageType>BOOST</stageType>
  <featureType>HAAR</featureType>
  <height>24</height>
  <width>24</width>
  <stageParams>
    <boostType>GAB</boostType>
    <minHitRate>9.9500000476837158e-01</minHitRate>
    <maxFalseAlarm>5.0000000000000000e-01</maxFalseAlarm>
    <weightTrimRate>9.4999998807907104e-01</weightTrimRate>
    <maxDepth>1</maxDepth>
    <maxWeakCount>100</maxWeakCount></stageParams>
  <featureParams>
    <maxCatCount>0</maxCatCount>
    <featSize>1</featSize>
    <mode>BASIC</mode></featureParams>
  <stageNum>20</stageNum>
  <stages>
    <!-- stage 0 -->
    <_>
      <maxWeakCount>15</maxWeakCount>
      <stageThreshold>-1.7316981554031372e+00</stageThreshold>
      <weakClassifiers>
        <_>
          <internalNodes>
            0 -1 452 -6.4120955765247345e-02</internalNodes>
          <leafValues>
            4.4021147489547729e-01 -5.4647839069366455e-01</leafValues></_>
        <_>
          <internalNodes>
            0 -1 1088 1.6910657286643982e-02</internalNodes>
          <leafValues>
            -3.0303022265434265e-01 5.3894329071044922e-01</leafValues></_>
        <_>
          <internalNodes>
            0 -1 243 4.4478482007980347e-01</internalNodes>
          <leafValues>
            1.5932916104793549e-01 -8.9443695545196533e-01</leafValues></_>
        <_>
          <internalNodes>
            0 -1 293 -7.2866078699007630e-04</internalNodes>
          <leafValues>
            -7.3312854766845703e-01 1.3952580094337463e-01</leafValues></_>
        <_>
          <internalNodes>
            0 -1 293 4.9174076411873102e-04</internalNodes>
          <leafValues>
            1.4494636654853821e-01 -6.6284149885177612e-01</leafValues></_>
        <_>
          <internalNodes>
            0 -1 45 -2.5450851768255234e-02</internalNodes>
          <leafValues>
            4.1005331277847290e-01 -2.2332437336444855e-01</leafValues></_>
        <_>
          <internalNodes>
            0 -1 87 -2.2594805806875229e-02</internalNodes>
          <leafValues>
            5.9966325759887695e-01 -1.6409043967723846e-01</leafValues></_>
        <_>
          <internalNodes>
            0 -1 944 -5.6144583504647017e-04</internalNodes>
          <leafValues>
            -6.2181389331817627e-01 1.7498083412647247e-01</leafValues></_>
        <_>
          <internalNodes>
            0 -1 944 4.4669042108580470e-04</internalNodes>
          <leafValues>
            1.1871428042650223e-01 -6.5413677692413330e-01</leafValues></_>
        <_>
          <internalNodes>
            0 -1 109 5.4829362779855728e-02</internalNodes>
          <leafValues>
            -1.3378950953483582e-01 4.8958206176757813e-01</leafValues></_>
        <_>
          <internalNodes>
            0 -1 474 4.0119251934811473e-04</internalNodes>
          <leafValues>
            1.2324524670839310e-01 -5.2561491727828979e-01</leafValues></_>
        <_>
          <internalNodes>
            0 -1 474 -3.8823290378786623e-04</internalNodes>
          <leafValues>
            -5.0583839416503906e-01 1.4584955573081970e-01</leafValues></_>
        <_>
          <internalNodes>
            0 -1 36 -6.3152915239334106e-01</internalNodes>
          <leafValues>
            -7.4942106008529663e-01 6.7571349442005157e-02</leafValues></_>
        <_>
          <internalNodes>
            0 -1 463 -3.1810976564884186e-02</internalNodes>
          <leafValues>
            4.7048938274383545e-01 -1.4161320030689240e-01</leafValues></_>
        <_>
          <internalNodes>
            0 -1 1137 -8.2392501644790173e-04</internalNodes>
          <leafValues>
            -5.5513548851013184e-01 1.3100437819957733e-01</leafValues></_></weakClassifiers></_>
    <!-- stage 1 -->
    <_>
      <maxWeakCount>29</maxWeakCount>
      <stageThreshold>-1.7831575870513916e+00</stageThreshold>
      <weakClassifiers>
        <_>
          <internalNodes>
            0 -1 153 -8.8470792397856712e-03</internalNodes>
          <leafValues>
            2.5837054848670959e-01 -4.9484813213348389e-01</leafValues></_>
        <_>
          <internalNodes>
            0 -1 1115 -5.2706885617226362e-04</internalNodes>
          <leafValues>
            -6.7478150129318237e-01 1.2976104021072388e-01</leafValues></_>
        <_>
          <internalNodes>
            0 -1 1115 4.6712148468941450e-04</internalNodes>
          <leafValues>
            2.0930400490760803e-01 -7.0136857032775879e-01</leafValues></_>
        <_>
          <internalNodes>
            0 -1 976 9.7904494396061637e-06</internalNodes>
          <leafValues>
            -3.8627877831459045e-01 2.5780954957008362e-01</leafValues></_>
        <_>
          <internalNodes>
            0 -1 561 -3.1670227646827698e-02</internalNodes>
          <leafValues>
            2.9172456264495850e-01 -2.7817982435226440e-01</leafValues></_>
        <_>
          <internalNodes>
            0 -1 537 -5.2749546011909842e-04</internalNodes>
          <leafValues>
            -6.3410103321075439e-01 1.2035491317510605e-01</leafValues></_>
        <_>
          <internalNodes>
            0 -1 537 7.4143346864730120e-04</internalNodes>
          <leafValues>
            1.2788224220275879e-01 -7.0893055200576782e-01</leafValues></_>
        <_>
          <internalNodes>
            0 -1 1087 1.5625912696123123e-02</internalNodes>
          <leafValues>
            -1.8966831266880035e-01 4.2255356907844543e-01</leafValues></_>
        <_>
          <internalNodes>
            0 -1 998 -2.0537737756967545e-02</internalNodes>
          <leafValues>
            4.5521324872970581e-01 -1.5851722657680511e-01</leafValues></_>
        <_>
          <internalNodes>
            0 -1 227 -9.2359387781471014e-04</internalNodes>
          <leafValues>
            -5.5874627828598022e-01 1.2151096761226654e-01</leafValues></_>
        <_>
          <internalNodes>
            0 -1 231 4.5983196469023824e-04</internalNodes>
          <leafValues>
            9.6716530621051788e-02 -5.1021409034729004e-01</leafValues></_>
        <_>
          <internalNodes>
            0 -1 1059 -1.2334252460277639e-05</internalNodes>
          <leafValues>
            2.4020478129386902e-01 -2.2759002447128296e-01</leafValues></_>
        <_>
          <internalNodes>
            0 -1 383 -3.0598619580268860e-01</internalNodes>
          <leafValues>
            5.9388917684555054e-01 -8.0505996942520142e-02</leafValues></_>
        <_>
          <internalNodes>
            0 -1 545 -4.1401170194149017e-02</internalNodes>
          <leafValues>
            3.9692544937133789e-01 -1.1119977384805679e-01</leafValues></_>
        <_>
          <internalNodes>
            0 -1 1227 5.7979160919785500e-04</internalNodes>
          <leafValues>
            7.1240030229091644e-02 -5.6228750944137573e-01</leafValues></_>
        <_>
          <internalNodes>
            0 -1 1228 -5.4567406186833978e-04</internalNodes>
          <leafValues>
            -5.3344041109085083e-01 8.0417640507221222e-02</leafValues></_>
        <_>
          <internalNodes>
            0 -1 655 1.3133521861163899e-05</internalNodes>
          <leafValues>
            -2.1488313376903534e-01 2.1383713185787201e-01</leafValues></_>
        <_>
          <internalNodes>
            0 -1 273 2.2715264931321144e-03</internalNodes>
          <leafValues>
            -1.3683559000492096e-01 3.0198356509208679e-01</leafValues></_>
        <_>
          <internalNodes>
            0 -1 108 -2.7827981859445572e-02</internalNodes>
          <leafValues>
            4.0897813439369202e-01 -1.1795818805694580e-01</leafValues></_>
        <_>
          <internalNodes>
            0 -1 913 -9.2069653328508139e-04</internalNodes>
          <leafValues>
            -6.0163336992263794e-01 6.8646550178527832e-02</leafValues></_>
        <_>
          <internalNodes>
            0 -1 913 4.6101142652332783e-04</internalNodes>
          <leafValues>
            1.0359599441289902e-01 -4.8370480537414551e-01</leafValues></_>
        <_>
          <internalNodes>
            0 -1 61 9.3733705580234528e-03</internalNodes>
          <leafValues>
            -1.3403260707855225e-01 3.2739639282226563e-01</leafValues></_>
        <_>
          <internalNodes>
            0 -1 1169 1.0962085798382759e-02</internalNodes>
          <leafValues>
            -1.0957773029804230e-01 3.3490094542503357e-01</leafValues></_>
        <_>
          <internalNodes>
            0 -1 2 1.1641367564152461e-05</internalNodes>
          <leafValues>
            -1.7664742469787598e-01 2.0072250068187714e-01</leafValues></_>
        <_>
          <internalNodes>
            0 -1 660 2.0382623188197613e-03</internalNodes>
          <leafValues>
            7.1381784975528717e-02 -5.0852054357528687e-01</leafValues></_>
        <_>
          <internalNodes>
            0 -1 834 3.6460434785112739e-04</internalNodes>
          <leafValues>
            7.8687615692615509e-02 -4.1594541072845459e-01</leafValues></_>
        <_>
          <internalNodes>
            0 -1 796 -7.0462273433804512e-03</internalNodes>
          <leafValues>
            3.1065410375595093e-01 -1.1998640000820160e-01</leafValues></_>
        <_>
          <internalNodes>
            0 -1 614 -2.3548852652311325e-02</internalNodes>
          <leafValues>
            3.7052479386329651e-01 -1.0603862255811691e-01</leafValues></_>
        <_>
          <internalNodes>
            0 -1 769 -1.3863548636436462e-02</internalNodes>
          <leafValues>
            3.7789571285247803e-01 -8.6649224162101746e-02</leafValues></_></weakClassifiers></_>
    <!-- stage 2 -->
    <_>
      <maxWeakCount>35</maxWeakCount>
      <stageThreshold>-1.7614847421646118e+00</stageThreshold>
      <weakClassifiers>
        <_>
          <internalNodes>
            0 -1 119 -1.3562086038291454e-02</internalNodes>
          <leafValues>
            4.0960162878036499e-01 -3.6598902940750122e-01</leafValues></_>
        <_>
          <internalNodes>
            0 -1 1025 -6.5435259602963924e-04</internalNodes>
          <leafValues>
            -5.5802232027053833e-01 1.5234653651714325e-01</leafValues></_>
        <_>
          <internalNodes>
            0 -1 507 -7.5558185577392578e-02</internalNodes>
          <leafValues>
            3.6378404498100281e-01 -2.5273773074150085e-01</leafValues></_>
        <_>
          <internalNodes>
            0 -1 1025 4.7416231245733798e-04</internalNodes>
          <leafValues>
            2.3810781538486481e-01 -3.7061098217964172e-01</leafValues></_>
        <_>
          <internalNodes>
            0 -1 230 -2.0811786816921085e-04</internalNodes>
          <leafValues>
            -5.4031503200531006e-01 4.9357146024703979e-02</leafValues></_>
        <_>
          <internalNodes>
            0 -1 1100 1.7028369009494781e-02</internalNodes>
          <leafValues>
            -1.5847851336002350e-01 4.1159960627555847e-01</leafValues></_>
        <_>
          <internalNodes>
            0 -1 63 -3.1866028904914856e-02</internalNodes>
          <leafValues>
            3.5564461350440979e-01 -1.7935405671596527e-01</leafValues></_>
        <_>
          <internalNodes>
            0 -1 912 -3.1112792203202844e-04</internalNodes>
          <leafValues>
            -5.0757414102554321e-01 1.0896225273609161e-01</leafValues></_>
        <_>
          <internalNodes>
            0 -1 912 2.3304723436012864e-04</internalNodes>
          <leafValues>
            1.3030792772769928e-01 -4.3536552786827087e-01</leafValues></_>
        <_>
          <internalNodes>
            0 -1 746 5.1874197088181973e-03</internalNodes>
          <leafValues>
            -1.0442035645246506e-01 4.6495079994201660e-01</leafValues></_>
        <_>
          <internalNodes>
            0 -1 1175 -1.5557813458144665e-03</internalNodes>
          <leafValues>
            6.2388789653778076e-01 -7.8864231705665588e-02</leafValues></_>
        <_>
          <internalNodes>
            0 -1 556 8.5732098668813705e-03</internalNodes>
          <leafValues>
            -8.6518697440624237e-02 4.9064376950263977e-01</leafValues></_>
        <_>
          <internalNodes>
            0 -1 919 1.4758668839931488e-03</internalNodes>
          <leafValues>
            -1.0068596154451370e-01 4.8784556984901428e-01</leafValues></_>
        <_>
          <internalNodes>
            0 -1 1267 2.6342278579249978e-04</internalNodes>
          <leafValues>
            1.1218342185020447e-01 -4.2432025074958801e-01</leafValues></_>
        <_>
          <internalNodes>
            0 -1 272 -9.8940096795558929e-03</internalNodes>
          <leafValues>
            2.9505074024200439e-01 -1.5768307447433472e-01</leafValues></_>
        <_>
          <internalNodes>
            0 -1 1229 4.1089154547080398e-04</internalNodes>
          <leafValues>
            1.0415401309728622e-01 -4.4790092110633850e-01</leafValues></_>
        <_>
          <internalNodes>
            0 -1 1291 -2.4728225544095039e-03</internalNodes>
          <leafValues>
            -3.7290447950363159e-01 1.1524932086467743e-01</leafValues></_>
        <_>
          <internalNodes>
            0 -1 528 -2.5230119004845619e-02</internalNodes>
          <leafValues>
            3.3898112177848816e-01 -1.3501001894474030e-01</leafValues></_>
        <_>
          <internalNodes>
            0 -1 204 -3.8466061232611537e-04</internalNodes>
          <leafValues>
            -3.6069011688232422e-01 1.2408645451068878e-01</leafValues></_>
        <_>
          <internalNodes>
            0 -1 204 3.7342688301578164e-04</internalNodes>
          <leafValues>
            1.2167517840862274e-01 -4.3387973308563232e-01</leafValues></_>
        <_>
          <internalNodes>
            0 -1 1175 9.4468251336365938e-04</internalNodes>
          <leafValues>
            -1.0786042362451553e-01 4.7667998075485229e-01</leafValues></_>
        <_>
          <internalNodes>
            0 -1 595 2.2245955187827349e-04</internalNodes>
          <leafValues>
            1.1899173259735107e-01 -3.4540513157844543e-01</leafValues></_>
        <_>
          <internalNodes>
            0 -1 595 -2.1612260024994612e-04</internalNodes>
          <leafValues>
            -3.7389701604843140e-01 1.3763889670372009e-01</leafValues></_>
        <_>
          <internalNodes>
            0 -1 747 2.5760033167898655e-03</internalNodes>
          <leafValues>
            -1.3940311968326569e-01 3.2000568509101868e-01</leafValues></_>
        <_>
          <internalNodes>
            0 -1 802 1.6895557055249810e-03</internalNodes>
          <leafValues>
            -8.1039063632488251e-02 4.6722733974456787e-01</leafValues></_>
        <_>
          <internalNodes>
            0 -1 271 1.2496782001107931e-03</internalNodes>
          <leafValues>
            -7.0039898157119751e-02 4.8006865382194519e-01</leafValues></_>
        <_>
          <internalNodes>
            0 -1 541 -8.0676645040512085e-02</internalNodes>
          <leafValues>
            2.7009627223014832e-01 -1.4351263642311096e-01</leafValues></_>
        <_>
          <internalNodes>
            0 -1 927 1.7462195828557014e-03</internalNodes>
          <leafValues>
            -7.6247677206993103e-02 5.1140195131301880e-01</leafValues></_>
        <_>
          <internalNodes>
            0 -1 1072 -1.0533839464187622e-02</internalNodes>
          <leafValues>
            3.1142282485961914e-01 -1.0315828025341034e-01</leafValues></_>
        <_>
          <internalNodes>
            0 -1 1071 7.6513998210430145e-03</internalNodes>
          <leafValues>
            -8.6031563580036163e-02 3.7183228135108948e-01</leafValues></_>
        <_>
          <internalNodes>
            0 -1 1228 -4.1563622653484344e-04</internalNodes>
          <leafValues>
            -4.3493828177452087e-01 8.4025911986827850e-02</leafValues></_>
        <_>
          <internalNodes>
            0 -1 963 7.7494478318840265e-04</internalNodes>
          <leafValues>
            -9.3605384230613708e-02 3.9749145507812500e-01</leafValues></_>
        <_>
          <internalNodes>
            0 -1 781 3.3544201869517565e-04</internalNodes>
          <leafValues>
            9.1690428555011749e-02 -3.9679905772209167e-01</leafValues></_>
        <_>
          <internalNodes>
            0 -1 805 -1.0811609681695700e-03</internalNodes>
          <leafValues>
            4.6702215075492859e-01 -7.2467826306819916e-02</leafValues></_>
        <_>
          <internalNodes>
            0 -1 131 -5.8680567890405655e-03</internalNodes>
          <leafValues>
            -3.7670528888702393e-01 8.8964253664016724e-02</leafValues></_></weakClassifiers></_>
    <!-- stage 3 -->
    <_>
      <maxWeakCount>49</maxWeakCount>
      <stageThreshold>-1.7132502794265747e+00</stageThreshold>
      <weakClassifiers>
        <_>
          <internalNodes>
            0 -1 344 -1.2090505659580231e-01</internalNodes>
          <leafValues>
            2.5080105662345886e-01 -4.7047021985054016e-01</leafValues></_>
        <_>
          <internalNodes>
            0 -1 413 -4.0533892810344696e-02</internalNodes>
          <leafValues>
            3.5337933897972107e-01 -2.4353975057601929e-01</leafValues></_>
        <_>
          <internalNodes>
            0 -1 138 -8.9584477245807648e-03</internalNodes>
          <leafValues>
            2.5462549924850464e-01 -2.4331328272819519e-01</leafValues></_>
        <_>
          <internalNodes>
            0 -1 594 2.7355272322893143e-04</internalNodes>
          <leafValues>
            1.1971539258956909e-01 -5.6057399511337280e-01</leafValues></_>
        <_>
          <internalNodes>
            0 -1 594 -2.6478944346308708e-04</internalNodes>
          <leafValues>
            -4.6507832407951355e-01 1.3579933345317841e-01</leafValues></_>
        <_>
          <internalNodes>
            0 -1 602 4.2862647771835327e-01</internalNodes>
          <leafValues>
            5.3294621407985687e-02 -8.9952856302261353e-01</leafValues></_>
        <_>
          <internalNodes>
            0 -1 1023 -3.4034464624710381e-04</internalNodes>
          <leafValues>
            -5.5753368139266968e-01 9.9513478577136993e-02</leafValues></_>
        <_>
          <internalNodes>
            0 -1 1024 3.8546876749023795e-04</internalNodes>
          <leafValues>
            7.5032800436019897e-02 -5.1353263854980469e-01</leafValues></_>
        <_>
          <internalNodes>
            0 -1 1168 1.2949591502547264e-02</internalNodes>
          <leafValues>
            -1.1579287052154541e-01 3.9771181344985962e-01</leafValues></_>
        <_>
          <internalNodes>
            0 -1 997 2.1038718521595001e-02</internalNodes>
          <leafValues>
            -1.5673917531967163e-01 2.6789540052413940e-01</leafValues></_>
        <_>
          <internalNodes>
            0 -1 295 -1.2674800818786025e-03</internalNodes>
          <leafValues>
            -4.7013184428215027e-01 8.4657460451126099e-02</leafValues></_>
        <_>
          <internalNodes>
            0 -1 327 3.8730137748643756e-04</internalNodes>
          <leafValues>
            8.6088053882122040e-02 -4.4267097115516663e-01</leafValues></_>
        <_>
          <internalNodes>
            0 -1 378 -5.8410353958606720e-02</internalNodes>
          <leafValues>
            2.9698798060417175e-01 -1.4151301980018616e-01</leafValues></_>
        <_>
          <internalNodes>
            0 -1 636 -1.8259400501847267e-02</internalNodes>
          <leafValues>
            3.4649553894996643e-01 -9.5975458621978760e-02</leafValues></_>
        <_>
          <internalNodes>
            0 -1 577 7.2777932509779930e-03</internalNodes>
          <leafValues>
            -1.0989651829004288e-01 3.4572511911392212e-01</leafValues></_>
        <_>
          <internalNodes>
            0 -1 1306 2.7579165180213749e-04</internalNodes>
          <leafValues>
            9.9182896316051483e-02 -3.3717703819274902e-01</leafValues></_>
        <_>
          <internalNodes>
            0 -1 1306 -5.5890897056087852e-04</internalNodes>
          <leafValues>
            -4.6149948239326477e-01 9.6794500946998596e-02</leafValues></_>
        <_>
          <internalNodes>
            0 -1 103 -1.1099094524979591e-02</internalNodes>
          <leafValues>
            3.5032314062118530e-01 -1.0692529380321503e-01</leafValues></_>
        <_>
          <internalNodes>
            0 -1 315 2.8385040350258350e-03</internalNodes>
          <leafValues>
            -8.9429944753646851e-02 3.6656957864761353e-01</leafValues></_>
        <_>
          <internalNodes>
            0 -1 370 4.3090220424346626e-04</internalNodes>
          <leafValues>
            9.6327960491180420e-02 -3.1551140546798706e-01</leafValues></_>
        <_>
          <internalNodes>
            0 -1 264 3.0330335721373558e-03</internalNodes>
          <leafValues>
            -9.4054922461509705e-02 3.3968573808670044e-01</leafValues></_>
        <_>
          <internalNodes>
            0 -1 0 -1.6177445650100708e-04</internalNodes>
          <leafValues>
            -2.6909649372100830e-01 1.0574677586555481e-01</leafValues></_>
        <_>
          <internalNodes>
            0 -1 926 7.6137781143188477e-03</internalNodes>
          <leafValues>
            -1.3231149315834045e-01 2.2384600341320038e-01</leafValues></_>
        <_>
          <internalNodes>
            0 -1 738 4.8180755227804184e-02</internalNodes>
          <leafValues>
            -7.8484751284122467e-02 3.6321264505386353e-01</leafValues></_>
        <_>
          <internalNodes>
            0 -1 945 -1.5032213414087892e-03</internalNodes>
          <leafValues>
            -3.8727658987045288e-01 7.4956692755222321e-02</leafValues></_>
        <_>
          <internalNodes>
            0 -1 812 2.2019976750016212e-03</internalNodes>
          <leafValues>
            -9.8313331604003906e-02 2.8582569956779480e-01</leafValues></_>
        <_>
          <internalNodes>
            0 -1 393 -6.8767577409744263e-02</internalNodes>
          <leafValues>
            3.9574217796325684e-01 -6.7600533366203308e-02</leafValues></_>
        <_>
          <internalNodes>
            0 -1 764 -1.7626290209591389e-03</internalNodes>
          <leafValues>
            4.6979171037673950e-01 -5.1878977566957474e-02</leafValues></_>
        <_>
          <internalNodes>
            0 -1 1055 2.1330275922082365e-04</internalNodes>
          <leafValues>
            9.7292639315128326e-02 -2.6607972383499146e-01</leafValues></_>
        <_>
          <internalNodes>
            0 -1 79 -4.6714037656784058e-02</internalNodes>
          <leafValues>
            2.4411430954933167e-01 -1.0621854662895203e-01</leafValues></_>
        <_>
          <internalNodes>
            0 -1 1229 -3.9668014505878091e-04</internalNodes>
          <leafValues>
            -3.6511671543121338e-01 6.7801751196384430e-02</leafValues></_>
        <_>
          <internalNodes>
            0 -1 1228 1.6832449182402343e-04</internalNodes>
          <leafValues>
            8.7202645838260651e-02 -2.6569011807441711e-01</leafValues></_>
        <_>
          <internalNodes>
            0 -1 696 -2.6092706248164177e-03</internalNodes>
          <leafValues>
            3.3751267194747925e-01 -8.0049887299537659e-02</leafValues></_>
        <_>
          <internalNodes>
            0 -1 1147 1.5790283679962158e-02</internalNodes>
          <leafValues>
            -8.4515072405338287e-02 2.6733013987541199e-01</leafValues></_>
        <_>
          <internalNodes>
            0 -1 1295 -2.2557571064680815e-03</internalNodes>
          <leafValues>
            -3.8727012276649475e-01 6.3810363411903381e-02</leafValues></_>
        <_>
          <internalNodes>
            0 -1 1007 2.9077571816742420e-03</internalNodes>
          <leafValues>
            -1.1489792913198471e-01 2.1031373739242554e-01</leafValues></_>
        <_>
          <internalNodes>
            0 -1 815 -5.9238225221633911e-03</internalNodes>
          <leafValues>
            4.3606442213058472e-01 -5.3860861808061600e-02</leafValues></_>
        <_>
          <internalNodes>
            0 -1 729 1.7177655827254057e-03</internalNodes>
          <leafValues>
            8.6565725505352020e-02 -2.8076353669166565e-01</leafValues></_>
        <_>
          <internalNodes>
            0 -1 743 -4.1988352313637733e-03</internalNodes>
          <leafValues>
            2.8312650322914124e-01 -8.3062186837196350e-02</leafValues></_>
        <_>
          <internalNodes>
            0 -1 674 2.2683334536850452e-03</internalNodes>
          <leafValues>
            -1.0771109163761139e-01 2.5190290808677673e-01</leafValues></_>
        <_>
          <internalNodes>
            0 -1 327 -4.5792254968546331e-04</internalNodes>
          <leafValues>
            -3.5744571685791016e-01 6.5967760980129242e-02</leafValues></_>
        <_>
          <internalNodes>
            0 -1 532 -9.0149734169244766e-03</internalNodes>
          <leafValues>
            3.4060806035995483e-01 -6.7557103931903839e-02</leafValues></_>
        <_>
          <internalNodes>
            0 -1 944 -2.8527126414701343e-04</internalNodes>
          <leafValues>
            -3.0600261688232422e-01 7.7302046120166779e-02</leafValues></_>
        <_>
          <internalNodes>
            0 -1 469 -1.4348836615681648e-02</internalNodes>
          <leafValues>
            4.4291093945503235e-01 -4.9396652728319168e-02</leafValues></_>
        <_>
          <internalNodes>
            0 -1 943 2.1393454517237842e-04</internalNodes>
          <leafValues>
            8.8928669691085815e-02 -2.9514256119728088e-01</leafValues></_>
        <_>
          <internalNodes>
            0 -1 188 -5.9914370067417622e-03</internalNodes>
          <leafValues>
            -3.8349103927612305e-01 5.4083958268165588e-02</leafValues></_>
        <_>
          <internalNodes>
            0 -1 631 -5.3179308772087097e-02</internalNodes>
          <leafValues>
            2.4690634012222290e-01 -8.9132830500602722e-02</leafValues></_>
        <_>
          <internalNodes>
            0 -1 59 -1.6786782070994377e-02</internalNodes>
          <leafValues>
            3.1948238611221313e-01 -7.1043230593204498e-02</leafValues></_>
        <_>
          <internalNodes>
            0 -1 26 1.1289258487522602e-02</internalNodes>
          <leafValues>
            -8.4880150854587555e-02 2.9509893059730530e-01</leafValues></_></weakClassifiers></_>
    <!-- stage 4 -->
    <_>
      <maxWeakCount>50</maxWeakCount>
      <stageThreshold>-1.5412391424179077e+00</stageThreshold>
      <weakClassifiers>
        <_>
          <internalNodes>
            0 -1 1011 1.1530449613928795e-02</internalNodes>
          <leafValues>
            -4.8857307434082031e-01 1.7902716994285583e-01</leafValues></_>
        <_>
          <internalNodes>
            0 -1 134 -5.3271604701876640e-03</internalNodes>
          <leafValues>
            2.9646435379981995e-01 -2.4449738860130310e-01</leafValues></_>
        <_>
          <internalNodes>
            0 -1 448 -3.0737159773707390e-02</internalNodes>
          <leafValues>
            2.3916509747505188e-01 -2.6336246728897095e-01</leafValues></_>
        <_>
          <internalNodes>
            0 -1 1078 -8.8591817766427994e-03</internalNodes>
          <leafValues>
            3.0110865831375122e-01 -1.3670767843723297e-01</leafValues></_>
        <_>
          <internalNodes>
            0 -1 372 -5.0211913185194135e-04</internalNodes>
          <leafValues>
            -5.4156607389450073e-01 7.7459484338760376e-02</leafValues></_>
        <_>
          <internalNodes>
            0 -1 1266 -2.0838175259996206e-05</internalNodes>
          <leafValues>
            1.9953981041908264e-01 -2.1305130422115326e-01</leafValues></_>
        <_>
          <internalNodes>
            0 -1 1297 -4.7822380438446999e-03</internalNodes>
          <leafValues>
            -4.5517769455909729e-01 1.0013131052255630e-01</leafValues></_>
        <_>
          <internalNodes>
            0 -1 372 6.4164062496274710e-04</internalNodes>
          <leafValues>
            7.1591779589653015e-02 -5.9390157461166382e-01</leafValues></_>
        <_>
          <internalNodes>
            0 -1 634 -5.0462201237678528e-02</internalNodes>
          <leafValues>
            3.6393377184867859e-01 -1.1206138134002686e-01</leafValues></_>
        <_>
          <internalNodes>
            0 -1 819 4.6797273680567741e-03</internalNodes>
          <leafValues>
            -1.3221910595893860e-01 2.8977844119071960e-01</leafValues></_>
        <_>
          <internalNodes>
            0 -1 430 -8.0697327852249146e-02</internalNodes>
          <leafValues>
            3.2205176353454590e-01 -1.1380249261856079e-01</leafValues></_>
        <_>
          <internalNodes>
            0 -1 105 9.2945285141468048e-03</internalNodes>
          <leafValues>
            -1.1935072392225266e-01 3.3889767527580261e-01</leafValues></_>
        <_>
          <internalNodes>
            0 -1 83 -5.0039328634738922e-03</internalNodes>
          <leafValues>
            2.6309439539909363e-01 -1.3965824246406555e-01</leafValues></_>
        <_>
          <internalNodes>
            0 -1 392 5.4453384131193161e-02</internalNodes>
          <leafValues>
            -7.1201503276824951e-02 4.5183843374252319e-01</leafValues></_>
        <_>
          <internalNodes>
            0 -1 238 8.5061918944120407e-03</internalNodes>
          <leafValues>
            9.4269745051860809e-02 -3.6174848675727844e-01</leafValues></_>
        <_>
          <internalNodes>
            0 -1 226 3.8613242213614285e-04</internalNodes>
          <leafValues>
            7.2621002793312073e-02 -3.8485121726989746e-01</leafValues></_>
        <_>
          <internalNodes>
            0 -1 1151 -7.8734513372182846e-03</internalNodes>
          <leafValues>
            3.0942720174789429e-01 -9.5009714365005493e-02</leafValues></_>
        <_>
          <internalNodes>
            0 -1 1074 1.6135795041918755e-02</internalNodes>
          <leafValues>
            -9.6766255795955658e-02 3.1137773394584656e-01</leafValues></_>
        <_>
          <internalNodes>
            0 -1 1229 8.4796582814306021e-04</internalNodes>
          <leafValues>
            4.7548089176416397e-02 -5.3454118967056274e-01</leafValues></_>
        <_>
          <internalNodes>
            0 -1 40 -2.8644067049026489e-01</internalNodes>
          <leafValues>
            -5.0254213809967041e-01 4.8898912966251373e-02</leafValues></_>
        <_>
          <internalNodes>
            0 -1 524 -7.8598912805318832e-03</internalNodes>
          <leafValues>
            2.2841376066207886e-01 -1.1611630022525787e-01</leafValues></_>
        <_>
          <internalNodes>
            0 -1 1142 9.5904528279788792e-05</internalNodes>
          <leafValues>
            1.0598478466272354e-01 -2.4574305117130280e-01</leafValues></_>
        <_>
          <internalNodes>
            0 -1 51 3.2180598936975002e-03</internalNodes>
          <leafValues>
            -1.2309989333152771e-01 2.0839844644069672e-01</leafValues></_>
        <_>
          <internalNodes>
            0 -1 654 6.7697186022996902e-04</internalNodes>
          <leafValues>
            7.0843413472175598e-02 -3.7810942530632019e-01</leafValues></_>
        <_>
          <internalNodes>
            0 -1 77 -3.9667651057243347e-02</internalNodes>
          <leafValues>
            2.5599890947341919e-01 -1.0879990458488464e-01</leafValues></_>
        <_>
          <internalNodes>
            0 -1 659 -7.4495468288660049e-04</internalNodes>
          <leafValues>
            -5.1926255226135254e-01 5.2411299198865891e-02</leafValues></_>
        <_>
          <internalNodes>
            0 -1 527 -2.2983940318226814e-02</internalNodes>
          <leafValues>
            2.7685385942459106e-01 -1.0326245427131653e-01</leafValues></_>
        <_>
          <internalNodes>
            0 -1 709 4.5590018853545189e-03</internalNodes>
          <leafValues>
            -1.0448357462882996e-01 2.6625412702560425e-01</leafValues></_>
        <_>
          <internalNodes>
            0 -1 109 6.4743429422378540e-02</internalNodes>
          <leafValues>
            -7.7621638774871826e-02 3.1072229146957397e-01</leafValues></_>
        <_>
          <internalNodes>
            0 -1 442 -3.3072918653488159e-02</internalNodes>
          <leafValues>
            2.9637193679809570e-01 -9.1539539396762848e-02</leafValues></_>
        <_>
          <internalNodes>
            0 -1 185 -6.8379309959709644e-04</internalNodes>
          <leafValues>
            -3.1973108649253845e-01 7.5092516839504242e-02</leafValues></_>
        <_>
          <internalNodes>
            0 -1 193 -8.2749035209417343e-04</internalNodes>
          <leafValues>
            -4.1986978054046631e-01 5.5929359048604965e-02</leafValues></_>
        <_>
          <internalNodes>
            0 -1 755 -6.0099232941865921e-03</internalNodes>
          <leafValues>
            4.8595070838928223e-01 -5.7934667915105820e-02</leafValues></_>
        <_>
          <internalNodes>
            0 -1 755 2.0034420304000378e-03</internalNodes>
          <leafValues>
            -8.5824236273765564e-02 2.8394997119903564e-01</leafValues></_>
        <_>
          <internalNodes>
            0 -1 983 -3.3689718111418188e-04</internalNodes>
          <leafValues>
            -4.0862503647804260e-01 5.9084024280309677e-02</leafValues></_>
        <_>
          <internalNodes>
            0 -1 944 -2.8612738242372870e-04</internalNodes>
          <leafValues>
            -3.5498985648155212e-01 6.4480297267436981e-02</leafValues></_>
        <_>
          <internalNodes>
            0 -1 1235 -2.2719581465935335e-05</internalNodes>
          <leafValues>
            1.6906912624835968e-01 -1.5449275076389313e-01</leafValues></_>
        <_>
          <internalNodes>
            0 -1 554 -3.0564306303858757e-02</internalNodes>
          <leafValues>
            3.2551085948944092e-01 -6.8526685237884521e-02</leafValues></_>
        <_>
          <internalNodes>
            0 -1 558 5.2200360223650932e-03</internalNodes>
          <leafValues>
            -9.9680118262767792e-02 2.3129159212112427e-01</leafValues></_>
        <_>
          <internalNodes>
            0 -1 128 -7.5383111834526062e-02</internalNodes>
          <leafValues>
            2.0605517923831940e-01 -1.0490776598453522e-01</leafValues></_>
        <_>
          <internalNodes>
            0 -1 456 -2.1784946322441101e-02</internalNodes>
          <leafValues>
            2.4873909354209900e-01 -1.0217558592557907e-01</leafValues></_>
        <_>
          <internalNodes>
            0 -1 447 -5.7555906474590302e-02</internalNodes>
          <leafValues>
            2.9089680314064026e-01 -7.9266920685768127e-02</leafValues></_>
        <_>
          <internalNodes>
            0 -1 226 -7.2801136411726475e-04</internalNodes>
          <leafValues>
            -4.0585720539093018e-01 5.2909962832927704e-02</leafValues></_>
        <_>
          <internalNodes>
            0 -1 807 -4.3200594373047352e-03</internalNodes>
          <leafValues>
            2.1830104291439056e-01 -9.3312561511993408e-02</leafValues></_>
        <_>
          <internalNodes>
            0 -1 144 -1.7880385275930166e-03</internalNodes>
          <leafValues>
            -2.8391104936599731e-01 7.0589393377304077e-02</leafValues></_>
        <_>
          <internalNodes>
            0 -1 894 3.1951980781741440e-04</internalNodes>
          <leafValues>
            -1.1361098289489746e-01 1.8882732093334198e-01</leafValues></_>
        <_>
          <internalNodes>
            0 -1 149 -8.0647747963666916e-03</internalNodes>
          <leafValues>
            2.5155359506607056e-01 -7.6013676822185516e-02</leafValues></_>
        <_>
          <internalNodes>
            0 -1 112 -2.2078813053667545e-03</internalNodes>
          <leafValues>
            -2.5128808617591858e-01 7.6532334089279175e-02</leafValues></_>
        <_>
          <internalNodes>
            0 -1 420 9.9442358987289481e-06</internalNodes>
          <leafValues>
            -1.2806032598018646e-01 1.5971246361732483e-01</leafValues></_>
        <_>
          <internalNodes>
            0 -1 420 -1.0276287866872735e-05</internalNodes>
          <leafValues>
            1.9289024174213409e-01 -1.3443899154663086e-01</leafValues></_></weakClassifiers></_>
    <!-- stage 5 -->
    <_>
      <maxWeakCount>67</maxWeakCount>
      <stageThreshold>-1.6539099216461182e+00</stageThreshold>
      <weakClassifiers>
        <_>
          <internalNodes>
            0 -1 123 -2.1686589345335960e-02</internalNodes>
          <leafValues>
            1.4939388632774353e-01 -3.6449646949768066e-01</leafValues></_>
        <_>
          <internalNodes>
            0 -1 596 9.8693580366671085e-04</internalNodes>
          <leafValues>
            9.1254264116287231e-02 -4.9561291933059692e-01</leafValues></_>
        <_>
          <internalNodes>
            0 -1 719 1.0834268323378637e-05</internalNodes>
          <leafValues>
            -1.9967810809612274e-01 2.7821406722068787e-01</leafValues></_>
        <_>
          <internalNodes>
            0 -1 725 -6.0092436615377665e-04</internalNodes>
          <leafValues>
            -5.9239727258682251e-01 4.4760193675756454e-02</leafValues></_>
        <_>
          <internalNodes>
            0 -1 1105 1.0832529515028000e-02</internalNodes>
          <leafValues>
            -1.6517975926399231e-01 2.7032563090324402e-01</leafValues></_>
        <_>
          <internalNodes>
            0 -1 1053 -1.5865275636315346e-03</internalNodes>
          <leafValues>
            -5.3753513097763062e-01 5.9685561805963516e-02</leafValues></_>
        <_>
          <internalNodes>
            0 -1 1192 -4.7052634181454778e-04</internalNodes>
          <leafValues>
            -5.7729107141494751e-01 7.4337132275104523e-02</leafValues></_>
        <_>
          <internalNodes>
            0 -1 669 -1.9536398351192474e-02</internalNodes>
          <leafValues>
            3.2815060019493103e-01 -1.1863640695810318e-01</leafValues></_>
        <_>
          <internalNodes>
            0 -1 230 2.2550582798430696e-05</internalNodes>
          <leafValues>
            -1.7941185832023621e-01 2.1972982585430145e-01</leafValues></_>
        <_>
          <internalNodes>
            0 -1 230 4.8178492579609156e-04</internalNodes>
          <leafValues>
            5.0179272890090942e-02 -5.5029535293579102e-01</leafValues></_>
        <_>
          <internalNodes>
            0 -1 73 1.7928998917341232e-02</internalNodes>
          <leafValues>
            -9.6351884305477142e-02 3.9694902300834656e-01</leafValues></_>
        <_>
          <internalNodes>
            0 -1 181 -6.1840973794460297e-03</internalNodes>
          <leafValues>
            1.8071641027927399e-01 -2.0460177958011627e-01</leafValues></_>
        <_>
          <internalNodes>
            0 -1 998 -2.3237120360136032e-02</internalNodes>
          <leafValues>
            3.2810461521148682e-01 -1.0717158019542694e-01</leafValues></_>
        <_>
          <internalNodes>
            0 -1 106 -7.4622314423322678e-03</internalNodes>
          <leafValues>
            2.4223770201206207e-01 -1.1731825768947601e-01</leafValues></_>
        <_>
          <internalNodes>
            0 -1 204 -7.4188958387821913e-04</internalNodes>
          <leafValues>
            -4.4329077005386353e-01 5.5870838463306427e-02</leafValues></_>
        <_>
          <internalNodes>
            0 -1 482 3.0987516045570374e-01</internalNodes>
          <leafValues>
            6.7140430212020874e-02 -5.0722044706344604e-01</leafValues></_>
        <_>
          <internalNodes>
            0 -1 659 -2.6383023941889405e-04</internalNodes>
          <leafValues>
            -3.5075667500495911e-01 7.9483821988105774e-02</leafValues></_>
        <_>
          <internalNodes>
            0 -1 719 -9.8455238912720233e-06</internalNodes>
          <leafValues>
            2.3500631749629974e-01 -1.3091248273849487e-01</leafValues></_>
        <_>
          <internalNodes>
            0 -1 711 4.7895787283778191e-03</internalNodes>
          <leafValues>
            -2.0205263793468475e-01 1.6580358147621155e-01</leafValues></_>
        <_>
          <internalNodes>
            0 -1 1288 -3.2118279486894608e-03</internalNodes>
          <leafValues>
            -3.1816580891609192e-01 1.0159528255462646e-01</leafValues></_>
        <_>
          <internalNodes>
            0 -1 980 -1.1066930601373315e-03</internalNodes>
          <leafValues>
            -4.7276052832603455e-01 4.8883713781833649e-02</leafValues></_>
        <_>
          <internalNodes>
            0 -1 674 -3.8430769927799702e-03</internalNodes>
          <leafValues>
            2.7263095974922180e-01 -9.9077321588993073e-02</leafValues></_>
        <_>
          <internalNodes>
            0 -1 941 -1.0276287866872735e-05</internalNodes>
          <leafValues>
            1.5090221166610718e-01 -1.7680816352367401e-01</leafValues></_>
        <_>
          <internalNodes>
            0 -1 474 4.0127648389898241e-04</internalNodes>
          <leafValues>
            5.9392414987087250e-02 -3.8763764500617981e-01</leafValues></_>
        <_>
          <internalNodes>
            0 -1 1085 4.1252877563238144e-03</internalNodes>
          <leafValues>
            -1.1761786043643951e-01 2.1424825489521027e-01</leafValues></_>
        <_>
          <internalNodes>
            0 -1 1154 -8.1315892748534679e-04</internalNodes>
          <leafValues>
            2.0798514783382416e-01 -1.2566380202770233e-01</leafValues></_>
        <_>
          <internalNodes>
            0 -1 474 -3.4743890864774585e-04</internalNodes>
          <leafValues>
            -3.5079756379127502e-01 7.1334190666675568e-02</leafValues></_>
        <_>
          <internalNodes>
            0 -1 368 2.2002437617629766e-05</internalNodes>
          <leafValues>
            -1.4584809541702271e-01 1.7363047599792480e-01</leafValues></_>
        <_>
          <internalNodes>
            0 -1 368 -2.3424634491675533e-05</internalNodes>
          <leafValues>
            2.1095252037048340e-01 -1.1288424581289291e-01</leafValues></_>
        <_>
          <internalNodes>
            0 -1 1306 -4.6578049659729004e-04</internalNodes>
          <leafValues>
            -3.3572393655776978e-01 6.8762190639972687e-02</leafValues></_>
        <_>
          <internalNodes>
            0 -1 10 -7.6941913366317749e-01</internalNodes>
          <leafValues>
            -6.4407539367675781e-01 3.3273939043283463e-02</leafValues></_>
        <_>
          <internalNodes>
            0 -1 204 3.6130403168499470e-04</internalNodes>
          <leafValues>
            7.7305637300014496e-02 -3.0904793739318848e-01</leafValues></_>
        <_>
          <internalNodes>
            0 -1 41 1.0276287866872735e-05</internalNodes>
          <leafValues>
            -1.3492363691329956e-01 1.6326001286506653e-01</leafValues></_>
        <_>
          <internalNodes>
            0 -1 913 -2.5217898655682802e-04</internalNodes>
          <leafValues>
            -2.9969242215156555e-01 7.5439617037773132e-02</leafValues></_>
        <_>
          <internalNodes>
            0 -1 557 -1.1639500968158245e-02</internalNodes>
          <leafValues>
            3.3726403117179871e-01 -6.1476461589336395e-02</leafValues></_>
        <_>
          <internalNodes>
            0 -1 540 -4.4652335345745087e-02</internalNodes>
          <leafValues>
            3.1995975971221924e-01 -6.2695413827896118e-02</leafValues></_>
        <_>
          <internalNodes>
            0 -1 702 -5.7117422111332417e-03</internalNodes>
          <leafValues>
            1.8741717934608459e-01 -1.1121167242527008e-01</leafValues></_>
        <_>
          <internalNodes>
            0 -1 966 3.9744088426232338e-03</internalNodes>
          <leafValues>
            -9.1800369322299957e-02 2.7474173903465271e-01</leafValues></_>
        <_>
          <internalNodes>
            0 -1 296 -2.5444559287279844e-04</internalNodes>
          <leafValues>
            -2.7833411097526550e-01 8.1067860126495361e-02</leafValues></_>
        <_>
          <internalNodes>
            0 -1 240 1.7543509602546692e-03</internalNodes>
          <leafValues>
            5.9484738856554031e-02 -3.5281017422676086e-01</leafValues></_>
        <_>
          <internalNodes>
            0 -1 626 1.0547683814365882e-05</internalNodes>
          <leafValues>
            -1.3608339428901672e-01 1.5776254236698151e-01</leafValues></_>
        <_>
          <internalNodes>
            0 -1 626 -1.0481945537321735e-05</internalNodes>
          <leafValues>
            1.9243882596492767e-01 -1.3739933073520660e-01</leafValues></_>
        <_>
          <internalNodes>
            0 -1 140 -4.6003768220543861e-03</internalNodes>
          <leafValues>
            1.9394665956497192e-01 -1.0110282897949219e-01</leafValues></_>
        <_>
          <internalNodes>
            0 -1 1301 -7.6886627357453108e-04</internalNodes>
          <leafValues>
            -3.3831456303596497e-01 5.8690160512924194e-02</leafValues></_>
        <_>
          <internalNodes>
            0 -1 510 4.0155195165425539e-04</internalNodes>
          <leafValues>
            -8.7972827255725861e-02 2.3437169194221497e-01</leafValues></_>
        <_>
          <internalNodes>
            0 -1 510 -1.1706289114954416e-05</internalNodes>
          <leafValues>
            1.6498503088951111e-01 -1.2900014221668243e-01</leafValues></_>
        <_>
          <internalNodes>
            0 -1 510 1.0106258741870988e-05</internalNodes>
          <leafValues>
            -1.3429149985313416e-01 1.6230733692646027e-01</leafValues></_>
        <_>
          <internalNodes>
            0 -1 1115 6.2270415946841240e-04</internalNodes>
          <leafValues>
            4.8767630010843277e-02 -4.3888622522354126e-01</leafValues></_>
        <_>
          <internalNodes>
            0 -1 559 -1.4976832270622253e-01</internalNodes>
          <leafValues>
            2.6821377873420715e-01 -7.2204254567623138e-02</leafValues></_>
        <_>
          <internalNodes>
            0 -1 712 -1.6341229900717735e-02</internalNodes>
          <leafValues>
            2.1912673115730286e-01 -9.6745312213897705e-02</leafValues></_>
        <_>
          <internalNodes>
            0 -1 220 4.2881385888904333e-04</internalNodes>
          <leafValues>
            6.7812092602252960e-02 -2.9891636967658997e-01</leafValues></_>
        <_>
          <internalNodes>
            0 -1 498 -2.5452639907598495e-02</internalNodes>
          <leafValues>
            2.8056669235229492e-01 -7.1057319641113281e-02</leafValues></_>
        <_>
          <internalNodes>
            0 -1 621 -6.3669523224234581e-03</internalNodes>
          <leafValues>
            1.5248617529869080e-01 -1.2240108102560043e-01</leafValues></_>
        <_>
          <internalNodes>
            0 -1 50 -5.0649661570787430e-03</internalNodes>
          <leafValues>
            2.8178060054779053e-01 -6.9848872721195221e-02</leafValues></_>
        <_>
          <internalNodes>
            0 -1 21 -7.8380450606346130e-02</internalNodes>
          <leafValues>
            2.5202181935310364e-01 -7.4243552982807159e-02</leafValues></_>
        <_>
          <internalNodes>
            0 -1 455 -2.2441148757934570e-02</internalNodes>
          <leafValues>
            1.6603608429431915e-01 -1.2828472256660461e-01</leafValues></_>
        <_>
          <internalNodes>
            0 -1 379 -2.7908033132553101e-01</internalNodes>
          <leafValues>
            3.0547481775283813e-01 -8.1225439906120300e-02</leafValues></_>
        <_>
          <internalNodes>
            0 -1 865 3.9363675750792027e-03</internalNodes>
          <leafValues>
            -8.6958505213260651e-02 2.1842847764492035e-01</leafValues></_>
        <_>
          <internalNodes>
            0 -1 1240 -9.9442358987289481e-06</internalNodes>
          <leafValues>
            1.3670247793197632e-01 -1.2439767271280289e-01</leafValues></_>
        <_>
          <internalNodes>
            0 -1 1115 -1.6551819862797856e-04</internalNodes>
          <leafValues>
            -2.1590994298458099e-01 8.4547102451324463e-02</leafValues></_>
        <_>
          <internalNodes>
            0 -1 1078 -1.0760416276752949e-02</internalNodes>
          <leafValues>
            2.1189066767692566e-01 -8.6071796715259552e-02</leafValues></_>
        <_>
          <internalNodes>
            0 -1 1209 -2.5157705749734305e-05</internalNodes>
          <leafValues>
            1.4545525610446930e-01 -1.1733758449554443e-01</leafValues></_>
        <_>
          <internalNodes>
            0 -1 184 -5.4368161363527179e-04</internalNodes>
          <leafValues>
            -2.8817570209503174e-01 6.4512968063354492e-02</leafValues></_>
        <_>
          <internalNodes>
            0 -1 574 1.1815524194389582e-03</internalNodes>
          <leafValues>
            -6.8700090050697327e-02 2.7891340851783752e-01</leafValues></_>
        <_>
          <internalNodes>
            0 -1 277 -4.9983244389295578e-03</internalNodes>
          <leafValues>
            1.9657869637012482e-01 -9.2580430209636688e-02</leafValues></_>
        <_>
          <internalNodes>
            0 -1 370 -6.6520017571747303e-04</internalNodes>
          <leafValues>
            -2.9787087440490723e-01 6.1159130185842514e-02</leafValues></_>
        <_>
          <internalNodes>
            0 -1 176 8.2233427092432976e-03</internalNodes>
          <leafValues>
            4.6690009534358978e-02 -3.6078640818595886e-01</leafValues></_></weakClassifiers></_>
    <!-- stage 6 -->
    <_>
      <maxWeakCount>82</maxWeakCount>
      <stageThreshold>-1.5817489624023438e+00</stageThreshold>
      <weakClassifiers>
        <_>
          <internalNodes>
            0 -1 324 2.8836628422141075e-02</internalNodes>
          <leafValues>
            -4.3650951981544495e-01 8.1469073891639709e-02</leafValues></_>
        <_>
          <internalNodes>
            0 -1 964 -1.1391671374440193e-02</internalNodes>
          <leafValues>
            2.6565560698509216e-01 -1.8480595946311951e-01</leafValues></_>
        <_>
          <internalNodes>
            0 -1 222 -4.8033727216534317e-04</internalNodes>
          <leafValues>
            -3.9306071400642395e-01 9.3402765691280365e-02</leafValues></_>
        <_>
          <internalNodes>
            0 -1 487 -2.5095187127590179e-02</internalNodes>
          <leafValues>
            3.4725564718246460e-01 -6.8019747734069824e-02</leafValues></_>
        <_>
          <internalNodes>
            0 -1 857 1.0892039164900780e-02</internalNodes>
          <leafValues>
            -2.4516691267490387e-01 1.2486004084348679e-01</leafValues></_>
        <_>
          <internalNodes>
            0 -1 227 7.5476203346624970e-04</internalNodes>
          <leafValues>
            8.3557389676570892e-02 -4.0476042032241821e-01</leafValues></_>
        <_>
          <internalNodes>
            0 -1 132 -6.2869209796190262e-03</internalNodes>
          <leafValues>
            2.8538882732391357e-01 -9.8297394812107086e-02</leafValues></_>
        <_>
          <internalNodes>
            0 -1 1047 -9.9442358987289481e-06</internalNodes>
          <leafValues>
            1.9578646123409271e-01 -1.5013761818408966e-01</leafValues></_>
        <_>
          <internalNodes>
            0 -1 1047 2.1996222130837850e-05</internalNodes>
          <leafValues>
            -1.9013084471225739e-01 2.2938451170921326e-01</leafValues></_>
        <_>
          <internalNodes>
            0 -1 723 5.9122010134160519e-04</internalNodes>
          <leafValues>
            8.9308112859725952e-02 -4.0662080049514771e-01</leafValues></_>
        <_>
          <internalNodes>
            0 -1 1223 -4.7816795995458961e-04</internalNodes>
          <leafValues>
            -3.0705484747886658e-01 9.2730253934860229e-02</leafValues></_>
        <_>
          <internalNodes>
            0 -1 1065 -2.8582407161593437e-02</internalNodes>
          <leafValues>
            3.8598033785820007e-01 -8.3747200667858124e-02</leafValues></_>
        <_>
          <internalNodes>
            0 -1 835 2.9120073304511607e-04</internalNodes>
          <leafValues>
            9.2669971287250519e-02 -3.3609884977340698e-01</leafValues></_>
        <_>
          <internalNodes>
            0 -1 1047 -9.9442358987289481e-06</internalNodes>
          <leafValues>
            1.6051751375198364e-01 -1.6937534511089325e-01</leafValues></_>
        <_>
          <internalNodes>
            0 -1 321 -4.2458404786884785e-03</internalNodes>
          <leafValues>
            2.4035497009754181e-01 -1.0255321860313416e-01</leafValues></_>
        <_>
          <internalNodes>
            0 -1 553 -2.8298798948526382e-02</internalNodes>
          <leafValues>
            3.3466076850891113e-01 -6.8644411861896515e-02</leafValues></_>
        <_>
          <internalNodes>
            0 -1 874 2.1092389943078160e-05</internalNodes>
          <leafValues>
            -1.6255591809749603e-01 1.5348455309867859e-01</leafValues></_>
        <_>
          <internalNodes>
            0 -1 1303 1.1245525674894452e-03</internalNodes>
          <leafValues>
            8.0545328557491302e-02 -3.0958291888237000e-01</leafValues></_>
        <_>
          <internalNodes>
            0 -1 104 -2.0230468362569809e-02</internalNodes>
          <leafValues>
            -3.8181802630424500e-01 5.5658038705587387e-02</leafValues></_>
        <_>
          <internalNodes>
            0 -1 33 1.8268863856792450e-01</internalNodes>
          <leafValues>
            7.0559062063694000e-02 -3.9563605189323425e-01</leafValues></_>
        <_>
          <internalNodes>
            0 -1 1263 -1.0502109071239829e-03</internalNodes>
          <leafValues>
            -4.5998504757881165e-01 4.9068715423345566e-02</leafValues></_>
        <_>
          <internalNodes>
            0 -1 675 5.0761937163770199e-03</internalNodes>
          <leafValues>
            -8.7657660245895386e-02 2.5253361463546753e-01</leafValues></_>
        <_>
          <internalNodes>
            0 -1 1231 -2.3443351892638020e-05</internalNodes>
          <leafValues>
            1.4710631966590881e-01 -1.3483870029449463e-01</leafValues></_>
        <_>
          <internalNodes>
            0 -1 1161 1.9830368459224701e-02</internalNodes>
          <leafValues>
            -6.2650620937347412e-02 3.3059626817703247e-01</leafValues></_>
        <_>
          <internalNodes>
            0 -1 943 -6.3784152735024691e-04</internalNodes>
          <leafValues>
            -5.6922411918640137e-01 3.4548394381999969e-02</leafValues></_>
        <_>
          <internalNodes>
            0 -1 889 -1.6717726830393076e-03</internalNodes>
          <leafValues>
            2.3370777070522308e-01 -9.1631464660167694e-02</leafValues></_>
        <_>
          <internalNodes>
            0 -1 368 2.2668315068585798e-05</internalNodes>
          <leafValues>
            -1.2731559574604034e-01 1.5543282032012939e-01</leafValues></_>
        <_>
          <internalNodes>
            0 -1 718 -3.5264026373624802e-03</internalNodes>
          <leafValues>
            3.9138019084930420e-01 -5.0089810043573380e-02</leafValues></_>
        <_>
          <internalNodes>
            0 -1 832 -4.4551407336257398e-04</internalNodes>
          <leafValues>
            -2.8246495127677917e-01 7.6012074947357178e-02</leafValues></_>
        <_>
          <internalNodes>
            0 -1 1312 -1.0441537597216666e-05</internalNodes>
          <leafValues>
            1.4264647662639618e-01 -1.3746659457683563e-01</leafValues></_>
        <_>
          <internalNodes>
            0 -1 1312 -4.1267118649557233e-04</internalNodes>
          <leafValues>
            -2.9294756054878235e-01 7.3679327964782715e-02</leafValues></_>
        <_>
          <internalNodes>
            0 -1 180 -9.5460982993245125e-03</internalNodes>
          <leafValues>
            1.7515151202678680e-01 -1.1904390901327133e-01</leafValues></_>
        <_>
          <internalNodes>
            0 -1 405 2.7981586754322052e-03</internalNodes>
          <leafValues>
            -8.0428890883922577e-02 2.6851791143417358e-01</leafValues></_>
        <_>
          <internalNodes>
            0 -1 377 -4.5039907097816467e-02</internalNodes>
          <leafValues>
            2.4944636225700378e-01 -7.5896106660366058e-02</leafValues></_>
        <_>
          <internalNodes>
            0 -1 294 1.9446003716439009e-03</internalNodes>
          <leafValues>
            3.4243818372488022e-02 -5.1378595829010010e-01</leafValues></_>
        <_>
          <internalNodes>
            0 -1 822 3.0059521086513996e-03</internalNodes>
          <leafValues>
            -8.4947086870670319e-02 2.1944989264011383e-01</leafValues></_>
        <_>
          <internalNodes>
            0 -1 816 -8.9002512395381927e-03</internalNodes>
          <leafValues>
            1.9675213098526001e-01 -1.1412993818521500e-01</leafValues></_>
        <_>
          <internalNodes>
            0 -1 1248 2.4012770503759384e-02</internalNodes>
          <leafValues>
            4.1468113660812378e-02 -4.4409865140914917e-01</leafValues></_>
        <_>
          <internalNodes>
            0 -1 226 -2.1962259779684246e-05</internalNodes>
          <leafValues>
            1.4130432903766632e-01 -1.3169156014919281e-01</leafValues></_>
        <_>
          <internalNodes>
            0 -1 1057 6.2393315602093935e-04</internalNodes>
          <leafValues>
            7.1788050234317780e-02 -2.5149235129356384e-01</leafValues></_>
        <_>
          <internalNodes>
            0 -1 925 1.1546338209882379e-03</internalNodes>
          <leafValues>
            -9.0720511972904205e-02 1.9390198588371277e-01</leafValues></_>
        <_>
          <internalNodes>
            0 -1 595 2.3346941452473402e-04</internalNodes>
          <leafValues>
            6.4452946186065674e-02 -2.7572926878929138e-01</leafValues></_>
        <_>
          <internalNodes>
            0 -1 1254 1.1889791116118431e-02</internalNodes>
          <leafValues>
            3.8064185529947281e-02 -4.0639889240264893e-01</leafValues></_>
        <_>
          <internalNodes>
            0 -1 710 -7.0446003228425980e-03</internalNodes>
          <leafValues>
            1.9232912361621857e-01 -9.4615511596202850e-02</leafValues></_>
        <_>
          <internalNodes>
            0 -1 622 -3.4387223422527313e-03</internalNodes>
          <leafValues>
            2.0588564872741699e-01 -7.9750135540962219e-02</leafValues></_>
        <_>
          <internalNodes>
            0 -1 684 3.7282141856849194e-03</internalNodes>
          <leafValues>
            -7.9929009079933167e-02 2.3426406085491180e-01</leafValues></_>
        <_>
          <internalNodes>
            0 -1 1306 -8.4507942665368319e-04</internalNodes>
          <leafValues>
            -4.0009555220603943e-01 4.5709349215030670e-02</leafValues></_>
        <_>
          <internalNodes>
            0 -1 68 -1.7020765691995621e-02</internalNodes>
          <leafValues>
            3.5347867012023926e-01 -5.1993567496538162e-02</leafValues></_>
        <_>
          <internalNodes>
            0 -1 66 1.1109656043117866e-05</internalNodes>
          <leafValues>
            -1.2302057445049286e-01 1.5458425879478455e-01</leafValues></_>
        <_>
          <internalNodes>
            0 -1 931 2.5670146569609642e-03</internalNodes>
          <leafValues>
            -7.7480919659137726e-02 2.0297771692276001e-01</leafValues></_>
        <_>
          <internalNodes>
            0 -1 16 2.6786994189023972e-02</internalNodes>
          <leafValues>
            -6.2460210174322128e-02 2.4757061898708344e-01</leafValues></_>
        <_>
          <internalNodes>
            0 -1 1057 -1.5993530396372080e-03</internalNodes>
          <leafValues>
            -2.9847455024719238e-01 5.7365640997886658e-02</leafValues></_>
        <_>
          <internalNodes>
            0 -1 1042 -2.1744655896327458e-05</internalNodes>
          <leafValues>
            1.3139714300632477e-01 -1.1368106305599213e-01</leafValues></_>
        <_>
          <internalNodes>
            0 -1 1289 -1.1447333963587880e-03</internalNodes>
          <leafValues>
            -3.5876357555389404e-01 4.5530200004577637e-02</leafValues></_>
        <_>
          <internalNodes>
            0 -1 1131 -2.1441846911329776e-05</internalNodes>
          <leafValues>
            1.3877350091934204e-01 -1.1964478343725204e-01</leafValues></_>
        <_>
          <internalNodes>
            0 -1 1131 1.0466496860317420e-05</internalNodes>
          <leafValues>
            -1.1333764344453812e-01 1.4589187502861023e-01</leafValues></_>
        <_>
          <internalNodes>
            0 -1 645 -6.9420179352164268e-03</internalNodes>
          <leafValues>
            2.4536028504371643e-01 -6.1779025942087173e-02</leafValues></_>
        <_>
          <internalNodes>
            0 -1 210 2.8822329477407038e-04</internalNodes>
          <leafValues>
            6.9889500737190247e-02 -2.4958172440528870e-01</leafValues></_>
        <_>
          <internalNodes>
            0 -1 54 -2.4829690158367157e-01</internalNodes>
          <leafValues>
            -4.1303285956382751e-01 3.4819144755601883e-02</leafValues></_>
        <_>
          <internalNodes>
            0 -1 534 -6.1364551074802876e-03</internalNodes>
          <leafValues>
            2.6584279537200928e-01 -5.7308323681354523e-02</leafValues></_>
        <_>
          <internalNodes>
            0 -1 210 -5.8165378868579865e-04</internalNodes>
          <leafValues>
            -2.8963798284530640e-01 6.0794152319431305e-02</leafValues></_>
        <_>
          <internalNodes>
            0 -1 1140 -1.8689627177082002e-04</internalNodes>
          <leafValues>
            -2.2884283959865570e-01 6.3799865543842316e-02</leafValues></_>
        <_>
          <internalNodes>
            0 -1 896 3.5831429995596409e-03</internalNodes>
          <leafValues>
            -8.3090171217918396e-02 1.7977720499038696e-01</leafValues></_>
        <_>
          <internalNodes>
            0 -1 879 1.2260545918252319e-04</internalNodes>
          <leafValues>
            1.1066522449254990e-01 -1.3765500485897064e-01</leafValues></_>
        <_>
          <internalNodes>
            0 -1 1138 4.9600290367379785e-04</internalNodes>
          <leafValues>
            5.9248644858598709e-02 -2.4328012764453888e-01</leafValues></_>
        <_>
          <internalNodes>
            0 -1 1217 -2.2426696887123398e-05</internalNodes>
          <leafValues>
            1.3617596030235291e-01 -1.1304645985364914e-01</leafValues></_>
        <_>
          <internalNodes>
            0 -1 8 -9.3685083091259003e-02</internalNodes>
          <leafValues>
            2.0513984560966492e-01 -7.3319785296916962e-02</leafValues></_>
        <_>
          <internalNodes>
            0 -1 39 9.0385705232620239e-02</internalNodes>
          <leafValues>
            -7.4032858014106750e-02 2.3404960334300995e-01</leafValues></_>
        <_>
          <internalNodes>
            0 -1 699 -5.8455858379602432e-03</internalNodes>
          <leafValues>
            3.0336552858352661e-01 -4.6845413744449615e-02</leafValues></_>
        <_>
          <internalNodes>
            0 -1 562 -9.6061304211616516e-03</internalNodes>
          <leafValues>
            1.3235217332839966e-01 -1.1054901033639908e-01</leafValues></_>
        <_>
          <internalNodes>
            0 -1 750 2.4166128132492304e-03</internalNodes>
          <leafValues>
            -6.2371909618377686e-02 2.5741890072822571e-01</leafValues></_>
        <_>
          <internalNodes>
            0 -1 786 -4.5189440250396729e-02</internalNodes>
          <leafValues>
            2.1757365763187408e-01 -6.7475132644176483e-02</leafValues></_>
        <_>
          <internalNodes>
            0 -1 573 -6.8206852301955223e-03</internalNodes>
          <leafValues>
            1.8577419221401215e-01 -8.7163709104061127e-02</leafValues></_>
        <_>
          <internalNodes>
            0 -1 1249 9.5440540462732315e-03</internalNodes>
          <leafValues>
            -3.2466575503349304e-02 4.3110969662666321e-01</leafValues></_>
        <_>
          <internalNodes>
            0 -1 1199 -1.1539253137016203e-05</internalNodes>
          <leafValues>
            1.2664474546909332e-01 -1.1638844758272171e-01</leafValues></_>
        <_>
          <internalNodes>
            0 -1 107 1.7176270484924316e-02</internalNodes>
          <leafValues>
            -6.0328669846057892e-02 2.5029182434082031e-01</leafValues></_>
        <_>
          <internalNodes>
            0 -1 48 1.7287518829107285e-02</internalNodes>
          <leafValues>
            3.9885230362415314e-02 -3.9858207106590271e-01</leafValues></_>
        <_>
          <internalNodes>
            0 -1 239 -2.5658553931862116e-04</internalNodes>
          <leafValues>
            -2.3897287249565125e-01 5.7251486927270889e-02</leafValues></_>
        <_>
          <internalNodes>
            0 -1 366 -1.6891857609152794e-02</internalNodes>
          <leafValues>
            1.5911887586116791e-01 -9.0093806385993958e-02</leafValues></_>
        <_>
          <internalNodes>
            0 -1 1310 -9.8455238912720233e-06</internalNodes>
          <leafValues>
            1.2906491756439209e-01 -1.2446358054876328e-01</leafValues></_>
        <_>
          <internalNodes>
            0 -1 1310 -2.8394727269187570e-04</internalNodes>
          <leafValues>
            -2.0654124021530151e-01 7.3647037148475647e-02</leafValues></_>
        <_>
          <internalNodes>
            0 -1 35 -5.7532250881195068e-01</internalNodes>
          <leafValues>
            -5.2099138498306274e-01 2.6406951248645782e-02</leafValues></_></weakClassifiers></_>
    <!-- stage 7 -->
    <_>
      <maxWeakCount>100</maxWeakCount>
      <stageThreshold>-1.6281069517135620e+00</stageThreshold>
      <weakClassifiers>
        <_>
          <internalNodes>
            0 -1 154 -1.7089385539293289e-02</internalNodes>
          <leafValues>
            8.5772536695003510e-02 -3.7166288495063782e-01</leafValues></_>
        <_>
          <internalNodes>
            0 -1 270 -7.1849063038825989e-02</internalNodes>
          <leafValues>
            1.7661203444004059e-01 -2.2683793306350708e-01</leafValues></_>
        <_>
          <internalNodes>
            0 -1 1020 -2.7996371500194073e-04</internalNodes>
          <leafValues>
            -4.3016836047172546e-01 7.1061022579669952e-02</leafValues></_>
        <_>
          <internalNodes>
            0 -1 856 -6.3292081467807293e-03</internalNodes>
          <leafValues>
            2.5628799200057983e-01 -1.1866955459117889e-01</leafValues></_>
        <_>
          <internalNodes>
            0 -1 1021 5.4651655955240130e-04</internalNodes>
          <leafValues>
            5.8826379477977753e-02 -4.2134389281272888e-01</leafValues></_>
        <_>
          <internalNodes>
            0 -1 1084 -8.9159207418560982e-03</internalNodes>
          <leafValues>
            2.7397906780242920e-01 -1.0038004070520401e-01</leafValues></_>
        <_>
          <internalNodes>
            0 -1 220 -4.6249886509031057e-04</internalNodes>
          <leafValues>
            -3.8560518622398376e-01 3.4433882683515549e-02</leafValues></_>
        <_>
          <internalNodes>
            0 -1 220 -9.8455238912720233e-06</internalNodes>
          <leafValues>
            1.9196502864360809e-01 -1.4159986376762390e-01</leafValues></_>
        <_>
          <internalNodes>
            0 -1 642 -1.9195556640625000e-02</internalNodes>
          <leafValues>
            3.0704915523529053e-01 -7.1123309433460236e-02</leafValues></_>
        <_>
          <internalNodes>
            0 -1 1293 -6.7625904921442270e-04</internalNodes>
          <leafValues>
            -3.8608995079994202e-01 4.9735542386770248e-02</leafValues></_>
        <_>
          <internalNodes>
            0 -1 658 3.4420442534610629e-04</internalNodes>
          <leafValues>
            5.3084850311279297e-02 -4.2132276296615601e-01</leafValues></_>
        <_>
          <internalNodes>
            0 -1 658 -1.8997216830030084e-04</internalNodes>
          <leafValues>
            -2.9720693826675415e-01 7.6172761619091034e-02</leafValues></_>
        <_>
          <internalNodes>
            0 -1 1094 2.0222293678671122e-03</internalNodes>
          <leafValues>
            -1.0320261865854263e-01 2.4514579772949219e-01</leafValues></_>
        <_>
          <internalNodes>
            0 -1 550 -1.9757434725761414e-02</internalNodes>
          <leafValues>
            2.6490759849548340e-01 -7.1663767099380493e-02</leafValues></_>
        <_>
          <internalNodes>
            0 -1 261 -3.7953699938952923e-03</internalNodes>
          <leafValues>
            2.4862509965896606e-01 -8.5959181189537048e-02</leafValues></_>
        <_>
          <internalNodes>
            0 -1 7 -4.8502429854124784e-04</internalNodes>
          <leafValues>
            -2.0215593278408051e-01 1.0607306659221649e-01</leafValues></_>
        <_>
          <internalNodes>
            0 -1 1276 -3.2957522198557854e-03</internalNodes>
          <leafValues>
            -2.9621383547782898e-01 4.8061724752187729e-02</leafValues></_>
        <_>
          <internalNodes>
            0 -1 804 -9.8829427734017372e-03</internalNodes>
          <leafValues>
            1.9971747696399689e-01 -8.9506156742572784e-02</leafValues></_>
        <_>
          <internalNodes>
            0 -1 1267 -2.1059891878394410e-05</internalNodes>
          <leafValues>
            1.4705365896224976e-01 -1.2382953613996506e-01</leafValues></_>
        <_>
          <internalNodes>
            0 -1 1229 2.9225199250504375e-04</internalNodes>
          <leafValues>
            5.9777174144983292e-02 -2.9521104693412781e-01</leafValues></_>
        <_>
          <internalNodes>
            0 -1 1038 -6.4108716323971748e-03</internalNodes>
          <leafValues>
            1.6419760882854462e-01 -1.1682286113500595e-01</leafValues></_>
        <_>
          <internalNodes>
            0 -1 969 6.4336815848946571e-03</internalNodes>
          <leafValues>
            -6.7213796079158783e-02 2.6918429136276245e-01</leafValues></_>
        <_>
          <internalNodes>
            0 -1 1193 5.1560747670009732e-04</internalNodes>
          <leafValues>
            5.2444338798522949e-02 -3.7137606739997864e-01</leafValues></_>
        <_>
          <internalNodes>
            0 -1 263 2.5574692990630865e-03</internalNodes>
          <leafValues>
            -7.0262789726257324e-02 2.7868941426277161e-01</leafValues></_>
        <_>
          <internalNodes>
            0 -1 145 -5.8120600879192352e-03</internalNodes>
          <leafValues>
            -3.4665453433990479e-01 5.3099159151315689e-02</leafValues></_>
        <_>
          <internalNodes>
            0 -1 195 -1.8106219358742237e-03</internalNodes>
          <leafValues>
            -3.3850878477096558e-01 5.3294859826564789e-02</leafValues></_>
        <_>
          <internalNodes>
            0 -1 464 -7.9411277547478676e-03</internalNodes>
          <leafValues>
            2.4346238374710083e-01 -7.7343814074993134e-02</leafValues></_>
        <_>
          <internalNodes>
            0 -1 460 1.9128987332805991e-03</internalNodes>
          <leafValues>
            -9.5597065985202789e-02 2.1063654124736786e-01</leafValues></_>
        <_>
          <internalNodes>
            0 -1 1208 5.4258830845355988e-02</internalNodes>
          <leafValues>
            4.0895905345678329e-02 -4.0390968322753906e-01</leafValues></_>
        <_>
          <internalNodes>
            0 -1 1296 -5.0946515984833241e-03</internalNodes>
          <leafValues>
            -4.3395128846168518e-01 3.7753615528345108e-02</leafValues></_>
        <_>
          <internalNodes>
            0 -1 932 5.9436080045998096e-03</internalNodes>
          <leafValues>
            -1.5069602429866791e-01 1.0902518779039383e-01</leafValues></_>
        <_>
          <internalNodes>
            0 -1 1022 2.2233857307583094e-03</internalNodes>
          <leafValues>
            4.8271413892507553e-02 -3.0557861924171448e-01</leafValues></_>
        <_>
          <internalNodes>
            0 -1 115 -3.3421344123780727e-03</internalNodes>
          <leafValues>
            1.7451992630958557e-01 -8.7606355547904968e-02</leafValues></_>
        <_>
          <internalNodes>
            0 -1 612 -4.2006424628198147e-03</internalNodes>
          <leafValues>
            2.1583861112594604e-01 -6.8394631147384644e-02</leafValues></_>
        <_>
          <internalNodes>
            0 -1 499 -3.7194357719272375e-03</internalNodes>
          <leafValues>
            1.8823081254959106e-01 -9.1716907918453217e-02</leafValues></_>
        <_>
          <internalNodes>
            0 -1 557 -3.2763832714408636e-03</internalNodes>
          <leafValues>
            1.9491872191429138e-01 -1.0112569481134415e-01</leafValues></_>
        <_>
          <internalNodes>
            0 -1 296 3.0218920437619090e-04</internalNodes>
          <leafValues>
            6.6734015941619873e-02 -2.3339322209358215e-01</leafValues></_>
        <_>
          <internalNodes>
            0 -1 1200 -2.2448895833804272e-05</internalNodes>
          <leafValues>
            1.2365855276584625e-01 -1.1776208132505417e-01</leafValues></_>
        <_>
          <internalNodes>
            0 -1 432 -5.1542215049266815e-02</internalNodes>
          <leafValues>
            2.0902734994888306e-01 -7.1477003395557404e-02</leafValues></_>
        <_>
          <internalNodes>
            0 -1 58 -1.6875069588422775e-02</internalNodes>
          <leafValues>
            2.4101133644580841e-01 -6.0417946428060532e-02</leafValues></_>
        <_>
          <internalNodes>
            0 -1 1098 -1.8401177600026131e-02</internalNodes>
          <leafValues>
            2.7196118235588074e-01 -5.3125847131013870e-02</leafValues></_>
        <_>
          <internalNodes>
            0 -1 993 -2.9249114915728569e-02</internalNodes>
          <leafValues>
            2.3275645077228546e-01 -7.0535302162170410e-02</leafValues></_>
        <_>
          <internalNodes>
            0 -1 293 -3.0903570586815476e-04</internalNodes>
          <leafValues>
            -2.9534876346588135e-01 5.6703533977270126e-02</leafValues></_>
        <_>
          <internalNodes>
            0 -1 293 3.3729744609445333e-04</internalNodes>
          <leafValues>
            5.9690032154321671e-02 -3.1607401371002197e-01</leafValues></_>
        <_>
          <internalNodes>
            0 -1 230 1.1431617167545483e-05</internalNodes>
          <leafValues>
            -1.1825701594352722e-01 1.3984486460685730e-01</leafValues></_>
        <_>
          <internalNodes>
            0 -1 652 -4.2153298854827881e-03</internalNodes>
          <leafValues>
            2.5835490226745605e-01 -6.7935250699520111e-02</leafValues></_>
        <_>
          <internalNodes>
            0 -1 46 -1.2251175940036774e-01</internalNodes>
          <leafValues>
            1.9292646646499634e-01 -8.0241955816745758e-02</leafValues></_>
        <_>
          <internalNodes>
            0 -1 415 -7.2002939879894257e-02</internalNodes>
          <leafValues>
            1.8447168171405792e-01 -7.7848307788372040e-02</leafValues></_>
        <_>
          <internalNodes>
            0 -1 1309 9.5092842821031809e-04</internalNodes>
          <leafValues>
            6.4607210457324982e-02 -2.4234318733215332e-01</leafValues></_>
        <_>
          <internalNodes>
            0 -1 928 2.7157929725944996e-03</internalNodes>
          <leafValues>
            -6.3693143427371979e-02 2.3285925388336182e-01</leafValues></_>
        <_>
          <internalNodes>
            0 -1 309 -8.7355170398950577e-03</internalNodes>
          <leafValues>
            1.9456328451633453e-01 -7.4866667389869690e-02</leafValues></_>
        <_>
          <internalNodes>
            0 -1 1117 1.6511039575561881e-04</internalNodes>
          <leafValues>
            6.7447409033775330e-02 -2.0899224281311035e-01</leafValues></_>
        <_>
          <internalNodes>
            0 -1 250 2.3322094421018846e-05</internalNodes>
          <leafValues>
            -1.0979139059782028e-01 1.2779241800308228e-01</leafValues></_>
        <_>
          <internalNodes>
            0 -1 24 1.6414459794759750e-02</internalNodes>
          <leafValues>
            2.9637781903147697e-02 -5.0563836097717285e-01</leafValues></_>
        <_>
          <internalNodes>
            0 -1 1243 6.9834762252867222e-03</internalNodes>
          <leafValues>
            -4.6661656349897385e-02 3.0053651332855225e-01</leafValues></_>
        <_>
          <internalNodes>
            0 -1 751 -2.5478059425950050e-02</internalNodes>
          <leafValues>
            1.5546603500843048e-01 -8.8410541415214539e-02</leafValues></_>
        <_>
          <internalNodes>
            0 -1 1308 -5.9684691950678825e-04</internalNodes>
          <leafValues>
            -2.7807262539863586e-01 4.9365878105163574e-02</leafValues></_>
        <_>
          <internalNodes>
            0 -1 364 2.1501555238501169e-05</internalNodes>
          <leafValues>
            -1.0753791779279709e-01 1.2747783958911896e-01</leafValues></_>
        <_>
          <internalNodes>
            0 -1 364 -2.2864938728162088e-05</internalNodes>
          <leafValues>
            1.4074206352233887e-01 -1.0589389503002167e-01</leafValues></_>
        <_>
          <internalNodes>
            0 -1 474 3.3838237868621945e-04</internalNodes>
          <leafValues>
            4.6418253332376480e-02 -2.8786924481391907e-01</leafValues></_>
        <_>
          <internalNodes>
            0 -1 122 8.9489324018359184e-03</internalNodes>
          <leafValues>
            -9.2235438525676727e-02 1.6319432854652405e-01</leafValues></_>
        <_>
          <internalNodes>
            0 -1 143 -7.9255760647356510e-04</internalNodes>
          <leafValues>
            -2.6945808529853821e-01 5.0454057753086090e-02</leafValues></_>
        <_>
          <internalNodes>
            0 -1 798 3.2628616318106651e-03</internalNodes>
          <leafValues>
            -7.8843094408512115e-02 1.7826490104198456e-01</leafValues></_>
        <_>
          <internalNodes>
            0 -1 848 -7.2729494422674179e-03</internalNodes>
          <leafValues>
            1.6123059391975403e-01 -8.2086756825447083e-02</leafValues></_>
        <_>
          <internalNodes>
            0 -1 375 1.6047318058554083e-04</internalNodes>
          <leafValues>
            7.5394392013549805e-02 -1.7448993027210236e-01</leafValues></_>
        <_>
          <internalNodes>
            0 -1 1308 -2.0099116227356717e-05</internalNodes>
          <leafValues>
            1.2058144062757492e-01 -1.1391885578632355e-01</leafValues></_>
        <_>
          <internalNodes>
            0 -1 762 -5.0697349943220615e-03</internalNodes>
          <leafValues>
            3.6086520552635193e-01 -3.6905650049448013e-02</leafValues></_>
        <_>
          <internalNodes>
            0 -1 116 1.6135234385728836e-02</internalNodes>
          <leafValues>
            4.0227670222520828e-02 -3.5925728082656860e-01</leafValues></_>
        <_>
          <internalNodes>
            0 -1 753 2.9369860421866179e-03</internalNodes>
          <leafValues>
            -6.8488106131553650e-02 2.0178639888763428e-01</leafValues></_>
        <_>
          <internalNodes>
            0 -1 474 -1.3495646417140961e-03</internalNodes>
          <leafValues>
            -5.6148278713226318e-01 2.4512028321623802e-02</leafValues></_>
        <_>
          <internalNodes>
            0 -1 1269 5.2178290206938982e-04</internalNodes>
          <leafValues>
            4.6486854553222656e-02 -2.3783871531486511e-01</leafValues></_>
        <_>
          <internalNodes>
            0 -1 1234 9.8455238912720233e-06</internalNodes>
          <leafValues>
            -9.9356673657894135e-02 1.2698160111904144e-01</leafValues></_>
        <_>
          <internalNodes>
            0 -1 776 -7.2111231274902821e-03</internalNodes>
          <leafValues>
            2.4556806683540344e-01 -4.8055291175842285e-02</leafValues></_>
        <_>
          <internalNodes>
            0 -1 745 -1.1849721893668175e-02</internalNodes>
          <leafValues>
            2.1803787350654602e-01 -5.6471806019544601e-02</leafValues></_>
        <_>
          <internalNodes>
            0 -1 457 -2.0087378099560738e-02</internalNodes>
          <leafValues>
            2.3127268254756927e-01 -5.7886291295289993e-02</leafValues></_>
        <_>
          <internalNodes>
            0 -1 1255 -4.9057323485612869e-03</internalNodes>
          <leafValues>
            -4.8651039600372314e-01 2.5685220956802368e-02</leafValues></_>
        <_>
          <internalNodes>
            0 -1 1234 2.9336719308048487e-04</internalNodes>
          <leafValues>
            6.1574950814247131e-02 -1.9556006789207458e-01</leafValues></_>
        <_>
          <internalNodes>
            0 -1 1131 -2.5483053832431324e-05</internalNodes>
          <leafValues>
            1.2030327320098877e-01 -9.9703259766101837e-02</leafValues></_>
        <_>
          <internalNodes>
            0 -1 1131 1.0466496860317420e-05</internalNodes>
          <leafValues>
            -9.8622046411037445e-02 1.1993950605392456e-01</leafValues></_>
        <_>
          <internalNodes>
            0 -1 126 7.9152561724185944e-02</internalNodes>
          <leafValues>
            2.2229945287108421e-02 -5.1853913068771362e-01</leafValues></_>
        <_>
          <internalNodes>
            0 -1 76 -2.7346923947334290e-02</internalNodes>
          <leafValues>
            1.5035049617290497e-01 -7.8740201890468597e-02</leafValues></_>
        <_>
          <internalNodes>
            0 -1 571 2.9470445588231087e-03</internalNodes>
          <leafValues>
            -6.5945550799369812e-02 1.9661664962768555e-01</leafValues></_>
        <_>
          <internalNodes>
            0 -1 1080 2.6775144506245852e-03</internalNodes>
          <leafValues>
            -6.8115100264549255e-02 1.8023318052291870e-01</leafValues></_>
        <_>
          <internalNodes>
            0 -1 878 5.2564847283065319e-04</internalNodes>
          <leafValues>
            3.9122823625802994e-02 -3.4272134304046631e-01</leafValues></_>
        <_>
          <internalNodes>
            0 -1 878 -4.4925994006916881e-04</internalNodes>
          <leafValues>
            -3.0952495336532593e-01 4.3764807283878326e-02</leafValues></_>
        <_>
          <internalNodes>
            0 -1 1018 2.6881647499976680e-05</internalNodes>
          <leafValues>
            -1.2182022631168365e-01 1.1570556461811066e-01</leafValues></_>
        <_>
          <internalNodes>
            0 -1 1068 -1.0452050446474459e-05</internalNodes>
          <leafValues>
            1.1173216998577118e-01 -1.0531263798475266e-01</leafValues></_>
        <_>
          <internalNodes>
            0 -1 20 -9.5782607793807983e-02</internalNodes>
          <leafValues>
            2.3685964941978455e-01 -5.0730753690004349e-02</leafValues></_>
        <_>
          <internalNodes>
            0 -1 17 5.9992089867591858e-02</internalNodes>
          <leafValues>
            -7.0066139101982117e-02 1.6768662631511688e-01</leafValues></_>
        <_>
          <internalNodes>
            0 -1 518 -1.2782448902726173e-03</internalNodes>
          <leafValues>
            1.5243998169898987e-01 -7.2274163365364075e-02</leafValues></_>
        <_>
          <internalNodes>
            0 -1 547 -1.9896396994590759e-01</internalNodes>
          <leafValues>
            2.0026832818984985e-01 -5.5565867573022842e-02</leafValues></_>
        <_>
          <internalNodes>
            0 -1 1076 3.1671751290559769e-02</internalNodes>
          <leafValues>
            -4.8220168799161911e-02 2.7175021171569824e-01</leafValues></_>
        <_>
          <internalNodes>
            0 -1 656 -7.4656037613749504e-03</internalNodes>
          <leafValues>
            4.0311509370803833e-01 -2.7677973732352257e-02</leafValues></_>
        <_>
          <internalNodes>
            0 -1 191 -2.1466704085469246e-02</internalNodes>
          <leafValues>
            1.3695353269577026e-01 -7.6222583651542664e-02</leafValues></_>
        <_>
          <internalNodes>
            0 -1 231 2.7375557692721486e-04</internalNodes>
          <leafValues>
            5.4459467530250549e-02 -2.2277243435382843e-01</leafValues></_>
        <_>
          <internalNodes>
            0 -1 280 -1.9304451998323202e-03</internalNodes>
          <leafValues>
            -2.6919174194335938e-01 3.8308899849653244e-02</leafValues></_>
        <_>
          <internalNodes>
            0 -1 922 -1.0920189321041107e-02</internalNodes>
          <leafValues>
            2.5998124480247498e-01 -4.4589508324861526e-02</leafValues></_>
        <_>
          <internalNodes>
            0 -1 924 1.8061485607177019e-03</internalNodes>
          <leafValues>
            -7.7063359320163727e-02 1.8546600639820099e-01</leafValues></_>
        <_>
          <internalNodes>
            0 -1 1301 7.2389288106933236e-04</internalNodes>
          <leafValues>
            4.3854359537363052e-02 -2.7185201644897461e-01</leafValues></_>
        <_>
          <internalNodes>
            0 -1 974 1.4722668565809727e-03</internalNodes>
          <leafValues>
            -8.1816680729389191e-02 1.2950918078422546e-01</leafValues></_></weakClassifiers></_>
    <!-- stage 8 -->
    <_>
      <maxWeakCount>100</maxWeakCount>
      <stageThreshold>-1.6695770025253296e+00</stageThreshold>
      <weakClassifiers>
        <_>
          <internalNodes>
            0 -1 120 -1.2807431630790234e-02</internalNodes>
          <leafValues>
            1.4030937850475311e-01 -3.4611189365386963e-01</leafValues></_>
        <_>
          <internalNodes>
            0 -1 1109 7.2217034175992012e-03</internalNodes>
          <leafValues>
            -2.0882582664489746e-01 1.6571712493896484e-01</leafValues></_>
        <_>
          <internalNodes>
            0 -1 352 -1.2938633561134338e-01</internalNodes>
          <leafValues>
            2.5536882877349854e-01 -1.0641857236623764e-01</leafValues></_>
        <_>
          <internalNodes>
            0 -1 216 -4.6429701615124941e-04</internalNodes>
          <leafValues>
            -3.3622378110885620e-01 7.9298615455627441e-02</leafValues></_>
        <_>
          <internalNodes>
            0 -1 1309 -1.5680603682994843e-03</internalNodes>
          <leafValues>
            -3.6439201235771179e-01 4.9887079745531082e-02</leafValues></_>
        <_>
          <internalNodes>
            0 -1 1292 -3.4896102733910084e-03</internalNodes>
          <leafValues>
            -2.7243497967720032e-01 1.2518724799156189e-01</leafValues></_>
        <_>
          <internalNodes>
            0 -1 1166 -4.0402351878583431e-03</internalNodes>
          <leafValues>
            3.1887325644493103e-01 -8.0043710768222809e-02</leafValues></_>
        <_>
          <internalNodes>
            0 -1 1158 2.5502224452793598e-03</internalNodes>
          <leafValues>
            -9.5495052635669708e-02 2.7853962779045105e-01</leafValues></_>
        <_>
          <internalNodes>
            0 -1 984 3.9741810178384185e-04</internalNodes>
          <leafValues>
            5.5506769567728043e-02 -4.0261396765708923e-01</leafValues></_>
        <_>
          <internalNodes>
            0 -1 422 -1.6996078193187714e-02</internalNodes>
          <leafValues>
            2.1075059473514557e-01 -1.1294952034950256e-01</leafValues></_>
        <_>
          <internalNodes>
            0 -1 983 -2.7074036188423634e-04</internalNodes>
          <leafValues>
            -3.9456498622894287e-01 4.5859429985284805e-02</leafValues></_>
        <_>
          <internalNodes>
            0 -1 117 5.6551694869995117e-03</internalNodes>
          <leafValues>
            -7.2215646505355835e-02 2.7103558182716370e-01</leafValues></_>
        <_>
          <internalNodes>
            0 -1 668 -1.4059519395232201e-02</internalNodes>
          <leafValues>
            2.1711951494216919e-01 -9.5585457980632782e-02</leafValues></_>
        <_>
          <internalNodes>
            0 -1 216 9.1605389025062323e-04</internalNodes>
          <leafValues>
            7.6157577335834503e-02 -2.7107658982276917e-01</leafValues></_>
        <_>
          <internalNodes>
            0 -1 183 -6.3578202389180660e-03</internalNodes>
          <leafValues>
            1.0091149806976318e-01 -1.6966952383518219e-01</leafValues></_>
        <_>
          <internalNodes>
            0 -1 186 -1.7945619765669107e-03</internalNodes>
          <leafValues>
            -3.2683408260345459e-01 5.1694884896278381e-02</leafValues></_>
        <_>
          <internalNodes>
            0 -1 814 -5.1740854978561401e-03</internalNodes>
          <leafValues>
            3.7962302565574646e-01 -5.6249864399433136e-02</leafValues></_>
        <_>
          <internalNodes>
            0 -1 813 2.2751409560441971e-03</internalNodes>
          <leafValues>
            -7.1687109768390656e-02 3.0520874261856079e-01</leafValues></_>
        <_>
          <internalNodes>
            0 -1 1116 -1.7297577578574419e-03</internalNodes>
          <leafValues>
            -4.4263297319412231e-01 4.7572888433933258e-02</leafValues></_>
        <_>
          <internalNodes>
            0 -1 186 6.6472333855926991e-04</internalNodes>
          <leafValues>
            7.4433542788028717e-02 -2.0946885645389557e-01</leafValues></_>
        <_>
          <internalNodes>
            0 -1 256 -3.9173997938632965e-03</internalNodes>
          <leafValues>
            2.3233564198017120e-01 -6.9476008415222168e-02</leafValues></_>
        <_>
          <internalNodes>
            0 -1 349 -8.8520795106887817e-03</internalNodes>
          <leafValues>
            1.9717758893966675e-01 -8.0735348165035248e-02</leafValues></_>
        <_>
          <internalNodes>
            0 -1 1143 3.3460056874901056e-04</internalNodes>
          <leafValues>
            7.0076048374176025e-02 -2.1173302829265594e-01</leafValues></_>
        <_>
          <internalNodes>
            0 -1 1095 -7.0665320381522179e-03</internalNodes>
          <leafValues>
            2.1404588222503662e-01 -6.5563000738620758e-02</leafValues></_>
        <_>
          <internalNodes>
            0 -1 1264 -2.4803017367958091e-05</internalNodes>
          <leafValues>
            1.3116005063056946e-01 -1.1501064896583557e-01</leafValues></_>
        <_>
          <internalNodes>
            0 -1 511 -9.0804826468229294e-03</internalNodes>
          <leafValues>
            1.7544439435005188e-01 -8.6264230310916901e-02</leafValues></_>
        <_>
          <internalNodes>
            0 -1 11 -2.5349867343902588e-01</internalNodes>
          <leafValues>
            2.2829003632068634e-01 -7.1406714618206024e-02</leafValues></_>
        <_>
          <internalNodes>
            0 -1 401 4.6886950731277466e-03</internalNodes>
          <leafValues>
            -8.1682071089744568e-02 1.9060213863849640e-01</leafValues></_>
        <_>
          <internalNodes>
            0 -1 546 -2.4251319468021393e-02</internalNodes>
          <leafValues>
            2.2908289730548859e-01 -6.1318263411521912e-02</leafValues></_>
        <_>
          <internalNodes>
            0 -1 832 6.5741752041503787e-04</internalNodes>
          <leafValues>
            4.7148108482360840e-02 -3.0630698800086975e-01</leafValues></_>
        <_>
          <internalNodes>
            0 -1 459 2.6406469260109589e-05</internalNodes>
          <leafValues>
            -1.0770402103662491e-01 1.3257880508899689e-01</leafValues></_>
        <_>
          <internalNodes>
            0 -1 459 -9.9442358987289481e-06</internalNodes>
          <leafValues>
            1.3594637811183929e-01 -1.1024947464466095e-01</leafValues></_>
        <_>
          <internalNodes>
            0 -1 255 2.5426854845136404e-03</internalNodes>
          <leafValues>
            -7.4099160730838776e-02 1.8714311718940735e-01</leafValues></_>
        <_>
          <internalNodes>
            0 -1 590 -1.3128023594617844e-02</internalNodes>
          <leafValues>
            3.3807161450386047e-01 -3.8817774504423141e-02</leafValues></_>
        <_>
          <internalNodes>
            0 -1 370 1.0023078648373485e-03</internalNodes>
          <leafValues>
            3.9562251418828964e-02 -3.8533699512481689e-01</leafValues></_>
        <_>
          <internalNodes>
            0 -1 1312 -2.0257964933989570e-05</internalNodes>
          <leafValues>
            1.1862748116254807e-01 -1.1764296144247055e-01</leafValues></_>
        <_>
          <internalNodes>
            0 -1 1282 7.7723283320665359e-03</internalNodes>
          <leafValues>
            3.7497028708457947e-02 -3.5093203186988831e-01</leafValues></_>
        <_>
          <internalNodes>
            0 -1 1287 -3.7061946932226419e-03</internalNodes>
          <leafValues>
            -3.4143251180648804e-01 4.5481950044631958e-02</leafValues></_>
        <_>
          <internalNodes>
            0 -1 1102 3.0109388753771782e-03</internalNodes>
          <leafValues>
            -7.5108021497726440e-02 1.9179341197013855e-01</leafValues></_>
        <_>
          <internalNodes>
            0 -1 902 -1.4119502156972885e-02</internalNodes>
          <leafValues>
            1.9879297912120819e-01 -6.6366203129291534e-02</leafValues></_>
        <_>
          <internalNodes>
            0 -1 695 4.4188708998262882e-03</internalNodes>
          <leafValues>
            -6.2857896089553833e-02 2.4880024790763855e-01</leafValues></_>
        <_>
          <internalNodes>
            0 -1 875 2.0342355128377676e-04</internalNodes>
          <leafValues>
            6.0236476361751556e-02 -2.1447245776653290e-01</leafValues></_>
        <_>
          <internalNodes>
            0 -1 641 6.5237056696787477e-04</internalNodes>
          <leafValues>
            -1.2459395825862885e-01 1.0373170673847198e-01</leafValues></_>
        <_>
          <internalNodes>
            0 -1 992 -3.8342565298080444e-02</internalNodes>
          <leafValues>
            2.2168661653995514e-01 -6.0808531939983368e-02</leafValues></_>
        <_>
          <internalNodes>
            0 -1 1306 2.0584143931046128e-04</internalNodes>
          <leafValues>
            6.9035738706588745e-02 -1.8869805335998535e-01</leafValues></_>
        <_>
          <internalNodes>
            0 -1 868 2.8266278095543385e-03</internalNodes>
          <leafValues>
            -6.8232178688049316e-02 1.8462745845317841e-01</leafValues></_>
        <_>
          <internalNodes>
            0 -1 427 1.3504179660230875e-03</internalNodes>
          <leafValues>
            3.4759927541017532e-02 -3.8737598061561584e-01</leafValues></_>
        <_>
          <internalNodes>
            0 -1 1149 1.9609350711107254e-02</internalNodes>
          <leafValues>
            -6.8917706608772278e-02 1.9813789427280426e-01</leafValues></_>
        <_>
          <internalNodes>
            0 -1 320 1.2418242404237390e-03</internalNodes>
          <leafValues>
            -7.5354099273681641e-02 1.6453659534454346e-01</leafValues></_>
        <_>
          <internalNodes>
            0 -1 509 1.0106258741870988e-05</internalNodes>
          <leafValues>
            -1.0459595918655396e-01 1.1867669969797134e-01</leafValues></_>
        <_>
          <internalNodes>
            0 -1 399 -2.5134896859526634e-03</internalNodes>
          <leafValues>
            1.5161558985710144e-01 -8.0680198967456818e-02</leafValues></_>
        <_>
          <internalNodes>
            0 -1 1306 -3.5820691846311092e-04</internalNodes>
          <leafValues>
            -2.2826351225376129e-01 5.5409621447324753e-02</leafValues></_>
        <_>
          <internalNodes>
            0 -1 164 -5.1952367648482323e-03</internalNodes>
          <leafValues>
            -2.6725289225578308e-01 4.3035198003053665e-02</leafValues></_>
        <_>
          <internalNodes>
            0 -1 893 -1.1452030390501022e-02</internalNodes>
          <leafValues>
            1.0471751540899277e-01 -1.1448176950216293e-01</leafValues></_>
        <_>
          <internalNodes>
            0 -1 775 -1.1720826849341393e-02</internalNodes>
          <leafValues>
            3.5868191719055176e-01 -3.4535128623247147e-02</leafValues></_>
        <_>
          <internalNodes>
            0 -1 890 -1.8952902406454086e-02</internalNodes>
          <leafValues>
            1.6941706836223602e-01 -6.6302984952926636e-02</leafValues></_>
        <_>
          <internalNodes>
            0 -1 607 -1.9029758870601654e-02</internalNodes>
          <leafValues>
            1.7739844322204590e-01 -7.3880940675735474e-02</leafValues></_>
        <_>
          <internalNodes>
            0 -1 96 -8.6626969277858734e-03</internalNodes>
          <leafValues>
            -3.3180141448974609e-01 3.5264108330011368e-02</leafValues></_>
        <_>
          <internalNodes>
            0 -1 502 -5.3786272183060646e-03</internalNodes>
          <leafValues>
            1.7513412237167358e-01 -6.6539235413074493e-02</leafValues></_>
        <_>
          <internalNodes>
            0 -1 37 2.1604531866614707e-05</internalNodes>
          <leafValues>
            -1.0213964432477951e-01 1.1389126628637314e-01</leafValues></_>
        <_>
          <internalNodes>
            0 -1 3 -1.1754634033422917e-04</internalNodes>
          <leafValues>
            -1.4230544865131378e-01 8.0282494425773621e-02</leafValues></_>
        <_>
          <internalNodes>
            0 -1 6 -1.8170725554227829e-02</internalNodes>
          <leafValues>
            1.9368432462215424e-01 -6.7102842032909393e-02</leafValues></_>
        <_>
          <internalNodes>
            0 -1 226 6.4315932104364038e-04</internalNodes>
          <leafValues>
            3.7130653858184814e-02 -2.9742938280105591e-01</leafValues></_>
        <_>
          <internalNodes>
            0 -1 909 2.8521572239696980e-03</internalNodes>
          <leafValues>
            -1.0459145903587341e-01 1.3741217553615570e-01</leafValues></_>
        <_>
          <internalNodes>
            0 -1 400 -1.0116651654243469e-02</internalNodes>
          <leafValues>
            1.3354812562465668e-01 -8.6895905435085297e-02</leafValues></_>
        <_>
          <internalNodes>
            0 -1 619 -5.5697886273264885e-03</internalNodes>
          <leafValues>
            1.8236452341079712e-01 -6.5777510404586792e-02</leafValues></_>
        <_>
          <internalNodes>
            0 -1 535 -5.5425835307687521e-04</internalNodes>
          <leafValues>
            -2.4437917768955231e-01 4.6689465641975403e-02</leafValues></_>
        <_>
          <internalNodes>
            0 -1 29 -4.1908122599124908e-02</internalNodes>
          <leafValues>
